{"learner":{"attributes":{},"feature_names":["lag_1","lag_2","lag_3","lag_4","lag_5","lag_6"],"feature_types":["float","float","float","float","float","float"],"gradient_booster":{"model":{"cats":{"enc":[],"feature_segments":[],"sorted_idx":[]},"gbtree_model_param":{"num_parallel_tree":"1","num_trees":"300"},"iteration_indptr":[0,1,2,3,4,5,6,7,8,9,10,11,12,13,14,15,16,17,18,19,20,21,22,23,24,25,26,27,28,29,30,31,32,33,34,35,36,37,38,39,40,41,42,43,44,45,46,47,48,49,50,51,52,53,54,55,56,57,58,59,60,61,62,63,64,65,66,67,68,69,70,71,72,73,74,75,76,77,78,79,80,81,82,83,84,85,86,87,88,89,90,91,92,93,94,95,96,97,98,99,100,101,102,103,104,105,106,107,108,109,110,111,112,113,114,115,116,117,118,119,120,121,122,123,124,125,126,127,128,129,130,131,132,133,134,135,136,137,138,139,140,141,142,143,144,145,146,147,148,149,150,151,152,153,154,155,156,157,158,159,160,161,162,163,164,165,166,167,168,169,170,171,172,173,174,175,176,177,178,179,180,181,182,183,184,185,186,187,188,189,190,191,192,193,194,195,196,197,198,199,200,201,202,203,204,205,206,207,208,209,210,211,212,213,214,215,216,217,218,219,220,221,222,223,224,225,226,227,228,229,230,231,232,233,234,235,236,237,238,239,240,241,242,243,244,245,246,247,248,249,250,251,252,253,254,255,256,257,258,259,260,261,262,263,264,265,266,267,268,269,270,271,272,273,274,275,276,277,278,279,280,281,282,283,284,285,286,287,288,289,290,291,292,293,294,295,296,297,298,299,300],"tree_info":[0,0,0,0,0,0,0,0,0,0,0,0,0,0,0,0,0,0,0,0,0,0,0,0,0,0,0,0,0,0,0,0,0,0,0,0,0,0,0,0,0,0,0,0,0,0,0,0,0,0,0,0,0,0,0,0,0,0,0,0,0,0,0,0,0,0,0,0,0,0,0,0,0,0,0,0,0,0,0,0,0,0,0,0,0,0,0,0,0,0,0,0,0,0,0,0,0,0,0,0,0,0,0,0,0,0,0,0,0,0,0,0,0,0,0,0,0,0,0,0,0,0,0,0,0,0,0,0,0,0,0,0,0,0,0,0,0,0,0,0,0,0,0,0,0,0,0,0,0,0,0,0,0,0,0,0,0,0,0,0,0,0,0,0,0,0,0,0,0,0,0,0,0,0,0,0,0,0,0,0,0,0,0,0,0,0,0,0,0,0,0,0,0,0,0,0,0,0,0,0,0,0,0,0,0,0,0,0,0,0,0,0,0,0,0,0,0,0,0,0,0,0,0,0,0,0,0,0,0,0,0,0,0,0,0,0,0,0,0,0,0,0,0,0,0,0,0,0,0,0,0,0,0,0,0,0,0,0,0,0,0,0,0,0,0,0,0,0,0,0,0,0,0,0,0,0,0,0,0,0,0,0,0,0,0,0,0,0,0,0,0,0,0,0,0,0,0,0,0,0],"trees":[{"base_weights":[8.64016E0,-1.6568931E3,4.777729E3,-5.0719536E3,-4.84021E2,2.3898445E3,6.247046E3,-5.41793E3,-8.833724E1,-1.7048809E3,1.1668408E3,2.856835E3,1.7396093E1,4.888457E1,3.3023422E2,-7.324043E1,-2.8046695E2,-6.185798E0,-1.533488E2,1.051112E2,-5.0212166E1,3.595957E1,1.5297356E2],"categories":[],"categories_nodes":[],"categories_segments":[],"categories_sizes":[],"default_left":[0,0,0,0,0,0,0,0,0,0,0,0,0,0,0,0,0,0,0,0,0,0,0],"id":0,"left_children":[1,3,5,7,9,11,13,15,-1,17,19,21,-1,-1,-1,-1,-1,-1,-1,-1,-1,-1,-1],"loss_changes":[6.751346E8,2.4988714E8,6.2258784E7,8.724288E6,9.873193E7,8.541628E6,1.8041472E7,2.376672E6,0E0,5.992408E7,4.4757856E7,1.26496E6,0E0,0E0,0E0,0E0,0E0,0E0,0E0,0E0,0E0,0E0,0E0],"parents":[2147483647,0,0,1,1,2,2,3,3,4,4,5,5,6,6,7,7,9,9,10,10,11,11],"right_children":[2,4,6,8,10,12,14,16,-1,18,20,22,-1,-1,-1,-1,-1,-1,-1,-1,-1,-1,-1],"split_conditions":[1.8024E4,1.0792E4,1.3401E4,1.5388E4,1.5388E4,2.2015E4,1.8581E4,7.237E3,-8.833724E1,1.3713E4,1.8581E4,8.997E3,1.7396093E1,4.888457E1,3.3023422E2,-7.324043E1,-2.8046695E2,-6.185798E0,-1.533488E2,1.051112E2,-5.0212166E1,3.595957E1,1.5297356E2],"split_indices":[0,0,5,5,4,2,0,5,0,2,2,5,0,0,0,0,0,0,0,0,0,0,0],"split_type":[0,0,0,0,0,0,0,0,0,0,0,0,0,0,0,0,0,0,0,0,0,0,0],"sum_hessian":[8.3E1,6.2E1,2.1E1,1.5E1,4.7E1,9E0,1.2E1,1.3E1,2E0,2.7E1,2E1,7E0,2E0,1E0,1.1E1,1E0,1.2E1,1.3E1,1.4E1,1.4E1,6E0,1E0,6E0],"tree_param":{"num_deleted":"0","num_feature":"6","num_nodes":"23","size_leaf_vector":"1"}},{"base_weights":[2.1656734E2,-1.2000789E3,5.537084E3,-4.8748447E3,2.4336136E1,8.998103E2,3.2332568E2,-2.5750412E2,-1.8657007E1,-1.6575574E3,9.6964075E2,7.16472E1,-1.748977E1,-1.0509479E2,6.323833E1,9.323978E1,-5.9308968E1],"categories":[],"categories_nodes":[],"categories_segments":[],"categories_sizes":[],"default_left":[0,0,0,0,0,0,0,0,0,0,0,0,0,0,0,0,0],"id":1,"left_children":[1,3,5,7,9,11,-1,-1,-1,13,15,-1,-1,-1,-1,-1,-1],"loss_changes":[6.096281E8,2.880827E8,6.745174E7,1.790288E7,7.951242E7,3.1660648E6,0E0,0E0,0E0,2.6031424E7,6.3965344E7,0E0,0E0,0E0,0E0,0E0,0E0],"parents":[2147483647,0,0,1,1,2,2,3,3,4,4,5,5,9,9,10,10],"right_children":[2,4,6,8,10,12,-1,-1,-1,14,16,-1,-1,-1,-1,-1,-1],"split_conditions":[1.8944E4,1.0792E4,1.1738E4,1.9692E4,1.2181E4,2.0985E4,3.2332568E2,-2.5750412E2,-1.8657007E1,1.6611E4,1.8581E4,7.16472E1,-1.748977E1,-1.0509479E2,6.323833E1,9.323978E1,-5.9308968E1],"split_indices":[0,0,4,5,4,0,0,0,0,0,2,0,0,0,0,0,0],"split_type":[0,0,0,0,0,0,0,0,0,0,0,0,0,0,0,0,0],"sum_hessian":[7.9E1,6.3E1,1.6E1,1.5E1,4.8E1,3E0,1.3E1,1.4E1,1E0,1.7E1,3.1E1,2E0,1E0,1.5E1,2E0,2.2E1,9E0],"tree_param":{"num_deleted":"0","num_feature":"6","num_nodes":"17","size_leaf_vector":"1"}},{"base_weights":[2.9257065E2,-3.036865E3,2.1088171E3,3.5715625E2,-3.5941948E3,5.375283E2,4.4775654E3,-9.4973663E2,1.5449971E3,-4.335428E3,-5.243843E2,-2.3024211E3,8.982706E2,5.6129844E3,7.03521E2,-6.4971825E1,-6.258423E0,1.3616577E1,1.022582E2,-1.2574391E2,-2.798172E2,-5.311337E1,5.4125782E1,-1.3958913E2,-2.0858423E1,1.2975122E2,8.165681E0,3.3269386E1,2.9492325E2,-3.9972534E0,7.568177E1],"categories":[],"categories_nodes":[],"categories_segments":[],"categories_sizes":[],"default_left":[0,0,0,0,0,0,0,0,0,0,0,0,0,0,0,0,0,0,0,0,0,0,0,0,0,0,0,0,0,0,0],"id":2,"left_children":[1,3,5,7,9,11,13,15,17,19,21,23,25,27,29,-1,-1,-1,-1,-1,-1,-1,-1,-1,-1,-1,-1,-1,-1,-1,-1],"loss_changes":[4.9621734E8,5.613976E7,1.9485858E8,9.229244E6,5.4612736E7,3.587637E7,8.603869E7,7.024055E5,1.352673E6,3.1837088E7,6.335867E6,2.525638E6,3.698743E7,1.8674304E7,3.9291908E6,0E0,0E0,0E0,0E0,0E0,0E0,0E0,0E0,0E0,0E0,0E0,0E0,0E0,0E0,0E0,0E0],"parents":[2147483647,0,0,1,1,2,2,3,3,4,4,5,5,6,6,7,7,8,8,9,9,10,10,11,11,12,12,13,13,14,14],"right_children":[2,4,6,8,10,12,14,16,18,20,22,24,26,28,30,-1,-1,-1,-1,-1,-1,-1,-1,-1,-1,-1,-1,-1,-1,-1,-1],"split_conditions":[1.276E4,7.975E3,1.8944E4,1.2267E4,1.5388E4,8.642E3,1.4752E4,9.498E3,1.0965E4,1.0947E4,1.8944E4,1.3932E4,1.276E4,8.997E3,1.321E4,-6.4971825E1,-6.258423E0,1.3616577E1,1.022582E2,-1.2574391E2,-2.798172E2,-5.311337E1,5.4125782E1,-1.3958913E2,-2.0858423E1,1.2975122E2,8.165681E0,3.3269386E1,2.9492325E2,-3.9972534E0,7.568177E1],"split_indices":[0,5,0,3,5,5,3,0,0,4,3,0,5,5,4,0,0,0,0,0,0,0,0,0,0,0,0,0,0,0,0],"split_type":[0,0,0,0,0,0,0,0,0,0,0,0,0,0,0,0,0,0,0,0,0,0,0,0,0,0,0,0,0,0,0],"sum_hessian":[8E1,2.8E1,5.2E1,4E0,2.4E1,3.2E1,2E1,2E0,2E0,1.9E1,5E0,3E0,2.9E1,1.5E1,5E0,1E0,1E0,1E0,1E0,9E0,1E1,4E0,1E0,2E0,1E0,8E0,2.1E1,1E0,1.4E1,3E0,2E0],"tree_param":{"num_deleted":"0","num_feature":"6","num_nodes":"31","size_leaf_vector":"1"}},{"base_weights":[-1.438303E2,-1.5083057E3,4.502577E3,-4.225308E3,-4.4567853E2,1.5677675E3,5.6483696E3,-4.7614077E3,-1.7719476E3,2.9207022E2,-2.1865637E3,1.3731667E2,5.470744E2,2.9766553E2,4.2103516E1,-9.483006E1,-2.5281274E2,-1.0231536E2,-1.6862745E1,-7.964043E1,7.133445E1,-1.4699467E2,-4.5281544E1,7.607903E1,-3.8473632E0],"categories":[],"categories_nodes":[],"categories_segments":[],"categories_sizes":[],"default_left":[0,0,0,0,0,0,0,0,0,0,0,0,0,0,0,0,0,0,0,0,0,0,0,0,0],"id":3,"left_children":[1,3,5,7,9,11,13,15,17,19,21,-1,23,-1,-1,-1,-1,-1,-1,-1,-1,-1,-1,-1,-1],"loss_changes":[5.5836326E8,1.9444378E8,5.839827E7,1.6552736E7,6.4855428E7,6.91823E6,1.5505824E7,3.08048E6,1.27798E6,7.926271E7,1.1812008E7,0E0,3.1576465E6,0E0,0E0,0E0,0E0,0E0,0E0,0E0,0E0,0E0,0E0,0E0,0E0],"parents":[2147483647,0,0,1,1,2,2,3,3,4,4,5,5,6,6,7,7,8,8,9,9,10,10,12,12],"right_children":[2,4,6,8,10,12,14,16,18,20,22,-1,24,-1,-1,-1,-1,-1,-1,-1,-1,-1,-1,-1,-1],"split_conditions":[1.8944E4,1.0792E4,1.2759E4,1.5388E4,1.6722E4,1.1837E4,1.7816E4,8.251E3,1.9692E4,1.2181E4,1.5189E4,1.3731667E2,1.9692E4,2.9766553E2,4.2103516E1,-9.483006E1,-2.5281274E2,-1.0231536E2,-1.6862745E1,-7.964043E1,7.133445E1,-1.4699467E2,-4.5281544E1,7.607903E1,-3.8473632E0],"split_indices":[0,0,5,5,2,5,4,5,5,4,0,0,2,0,0,0,0,0,0,0,0,0,0,0,0],"split_type":[0,0,0,0,0,0,0,0,0,0,0,0,0,0,0,0,0,0,0,0,0,0,0,0,0],"sum_hessian":[8.6E1,6.7E1,1.9E1,1.8E1,4.9E1,6E0,1.3E1,1.4E1,4E0,3.5E1,1.4E1,2E0,4E0,1.2E1,1E0,2E0,1.2E1,3E0,1E0,1.3E1,2.2E1,8E0,6E0,1E0,3E0],"tree_param":{"num_deleted":"0","num_feature":"6","num_nodes":"25","size_leaf_vector":"1"}},{"base_weights":[-8.228307E1,-3.1875276E3,6.8396967E2,-3.5532754E3,-1.4813949E1,-1.504209E2,2.4733687E3,-1.9280937E2,-8.781106E1,8.099206E2,-1.9492743E3,5.3139175E3,-3.365817E2,-5.545117E1,1.0083691E2,-1.3765187E2,1.3596495E2,5.981306E1,2.8030283E2,-7.685591E1,1.1719401E1],"categories":[],"categories_nodes":[],"categories_segments":[],"categories_sizes":[],"default_left":[0,0,0,0,0,0,0,0,0,0,0,0,0,0,0,0,0,0,0,0,0],"id":4,"left_children":[1,3,5,7,-1,9,11,-1,-1,13,15,17,19,-1,-1,-1,-1,-1,-1,-1,-1],"loss_changes":[2.0442934E8,1.6924208E7,1.0339301E8,1.392912E6,0E0,8.449941E7,1.773882E8,0E0,0E0,7.63427E7,7.127758E7,6.52592E6,8.585922E6,0E0,0E0,0E0,0E0,0E0,0E0,0E0,0E0],"parents":[2147483647,0,0,1,1,2,2,3,3,5,5,6,6,9,9,10,10,11,11,12,12],"right_children":[2,4,6,8,-1,10,12,-1,-1,14,16,18,20,-1,-1,-1,-1,-1,-1,-1,-1],"split_conditions":[1.0677E4,1.6611E4,1.8944E4,1.472E4,-1.4813949E1,1.5388E4,1.4395E4,-1.9280937E2,-8.781106E1,1.2267E4,2.1084E4,1.1143E4,1.1738E4,-5.545117E1,1.0083691E2,-1.3765187E2,1.3596495E2,5.981306E1,2.8030283E2,-7.685591E1,1.1719401E1],"split_indices":[1,3,1,5,0,2,3,0,0,3,5,3,5,0,0,0,0,0,0,0,0],"split_type":[0,0,0,0,0,0,0,0,0,0,0,0,0,0,0,0,0,0,0,0,0],"sum_hessian":[8.4E1,1.6E1,6.8E1,1.4E1,2E0,4.7E1,2.1E1,1.1E1,3E0,3.1E1,1.6E1,1E1,1.1E1,1.2E1,1.9E1,1.4E1,2E0,1E0,9E0,3E0,8E0],"tree_param":{"num_deleted":"0","num_feature":"6","num_nodes":"21","size_leaf_vector":"1"}},{"base_weights":[-3.4539906E1,-1.7259846E3,3.412275E3,-3.7065098E3,-9.59305E2,4.6354707E3,1.2116741E3,-4.1744453E3,-1.3760762E3,-1.2191875E3,1.7494053E3,4.864332E3,2.434236E1,-2.257539E1,1.9201846E3,-8.524207E1,-2.2489409E2,-1.607085E1,-8.102451E1,-1.0583541E2,-3.3390423E1,1.3864384E2,-3.302522E1,3.0391016E1,2.553789E2,7.163733E0,-1.714939E1,1.919476E1,1.2289607E2],"categories":[],"categories_nodes":[],"categories_segments":[],"categories_sizes":[],"default_left":[0,0,0,0,0,0,0,0,0,0,0,0,0,0,0,0,0,0,0,0,0,0,0,0,0,0,0,0,0],"id":5,"left_children":[1,3,5,7,9,11,13,15,17,19,21,23,-1,25,27,-1,-1,-1,-1,-1,-1,-1,-1,-1,-1,-1,-1,-1,-1],"loss_changes":[4.7812736E8,7.995789E7,6.7061024E7,1.0613024E7,3.099466E7,1.3772608E7,9.662615E6,1.916944E6,5.102415E5,1.7391668E7,1.1697391E7,1.3461568E7,0E0,3.148435E5,4.83925E6,0E0,0E0,0E0,0E0,0E0,0E0,0E0,0E0,0E0,0E0,0E0,0E0,0E0,0E0],"parents":[2147483647,0,0,1,1,2,2,3,3,4,4,5,5,6,6,7,7,8,8,9,9,10,10,11,11,13,13,14,14],"right_children":[2,4,6,8,10,12,14,16,18,20,22,24,-1,26,28,-1,-1,-1,-1,-1,-1,-1,-1,-1,-1,-1,-1,-1,-1],"split_conditions":[1.701E4,1.0792E4,1.4752E4,1.5388E4,2.1725E4,1.7816E4,1.2759E4,8.251E3,7.975E3,1.2181E4,1.4405E4,8.997E3,2.434236E1,2.1259E4,1.5175E4,-8.524207E1,-2.2489409E2,-1.607085E1,-8.102451E1,-1.0583541E2,-3.3390423E1,1.3864384E2,-3.302522E1,3.0391016E1,2.553789E2,7.163733E0,-1.714939E1,1.919476E1,1.2289607E2],"split_indices":[0,0,3,5,5,5,5,5,0,3,0,5,0,0,3,0,0,0,0,0,0,0,0,0,0,0,0,0,0],"split_type":[0,0,0,0,0,0,0,0,0,0,0,0,0,0,0,0,0,0,0,0,0,0,0,0,0,0,0,0,0],"sum_hessian":[8E1,5.4E1,2.6E1,1.4E1,4E1,1.6E1,1E1,1.1E1,3E0,3.7E1,3E0,1.5E1,1E0,4E0,6E0,2E0,9E0,1E0,2E0,1.3E1,2.4E1,2E0,1E0,1E0,1.4E1,3E0,1E0,2E0,4E0],"tree_param":{"num_deleted":"0","num_feature":"6","num_nodes":"29","size_leaf_vector":"1"}},{"base_weights":[-1.1815765E2,-3.1189973E3,5.359112E2,-1.7999854E2,-1.4370564E3,-8.7498085E1,2.3070986E3,-8.19815E1,-1.5669067E1,-1.1282712E3,1.5026084E3,4.6156284E3,-1.2882812E0,-9.115281E0,-1.3448442E2,-6.375992E1,1.3493723E2,5.1933254E1,2.466458E2,-4.033209E1,3.350272E1],"categories":[],"categories_nodes":[],"categories_segments":[],"categories_sizes":[],"default_left":[0,0,0,0,0,0,0,0,0,0,0,0,0,0,0,0,0,0,0,0,0],"id":6,"left_children":[1,3,5,-1,7,9,11,-1,-1,13,15,17,19,-1,-1,-1,-1,-1,-1,-1,-1],"loss_changes":[1.6458024E8,6.961168E6,7.638992E7,0E0,6.24305E5,8.775224E7,9.59276E7,0E0,0E0,4.6775156E7,7.321677E7,5.090672E6,5.9471755E6,0E0,0E0,0E0,0E0,0E0,0E0,0E0,0E0],"parents":[2147483647,0,0,1,1,2,2,4,4,5,5,6,6,9,9,10,10,11,11,12,12],"right_children":[2,4,6,-1,8,10,12,-1,-1,14,16,18,20,-1,-1,-1,-1,-1,-1,-1,-1],"split_conditions":[1.0306E4,1.472E4,1.999E4,-1.7999854E2,1.6611E4,1.5926E4,1.4395E4,-8.19815E1,-1.5669067E1,1.3784E4,1.247E4,1.1143E4,1.2256E4,-9.115281E0,-1.3448442E2,-6.375992E1,1.3493723E2,5.1933254E1,2.466458E2,-4.033209E1,3.350272E1],"split_indices":[1,5,1,0,3,4,3,0,0,3,1,3,5,0,0,0,0,0,0,0,0],"split_type":[0,0,0,0,0,0,0,0,0,0,0,0,0,0,0,0,0,0,0,0,0],"sum_hessian":[8.2E1,1.4E1,6.8E1,1E1,4E0,5.1E1,1.7E1,3E0,1E0,3.1E1,2E1,8E0,9E0,2E1,1.1E1,6E0,1.4E1,1E0,7E0,4E0,5E0],"tree_param":{"num_deleted":"0","num_feature":"6","num_nodes":"21","size_leaf_vector":"1"}},{"base_weights":[2.515313E2,-1.2096693E3,3.3328582E3,-2.7804822E3,-7.820369E1,2.6621585E2,1.7554266E3,-4.373759E3,-1.8100636E3,1.8181942E3,-1.1090479E3,1.0333641E3,1.8316365E2,-6.5137085E1,-2.3131848E2,-1.2544253E2,4.5675514E1,-6.501302E1,1.5010762E2,-7.263183E1,1.5265787E2,-1.5889697E1,5.8622173E1],"categories":[],"categories_nodes":[],"categories_segments":[],"categories_sizes":[],"default_left":[0,0,0,0,0,0,0,0,0,0,0,0,0,0,0,0,0,0,0,0,0,0,0],"id":7,"left_children":[1,3,5,7,9,-1,11,13,15,17,19,21,-1,-1,-1,-1,-1,-1,-1,-1,-1,-1,-1],"loss_changes":[3.6422656E8,9.753518E7,7.23297E7,2.764456E7,6.6527852E7,0E0,1.8255852E7,1.79216E5,3.2743036E7,4.8209024E7,3.589703E7,2.815531E6,0E0,0E0,0E0,0E0,0E0,0E0,0E0,0E0,0E0,0E0,0E0],"parents":[2147483647,0,0,1,1,2,2,3,3,4,4,6,6,7,7,8,8,9,9,10,10,11,11],"right_children":[2,4,6,8,10,-1,12,14,16,18,20,22,-1,-1,-1,-1,-1,-1,-1,-1,-1,-1,-1],"split_conditions":[1.701E4,1.247E4,1.4385E4,9.545E3,1.3598E4,2.6621585E2,2.2135E4,7.049E3,1.5388E4,1.0862E4,2.3125E4,1.4395E4,1.8316365E2,-6.5137085E1,-2.3131848E2,-1.2544253E2,4.5675514E1,-6.501302E1,1.5010762E2,-7.263183E1,1.5265787E2,-1.5889697E1,5.8622173E1],"split_indices":[0,0,2,0,1,0,0,0,4,1,4,2,0,0,0,0,0,0,0,0,0,0,0],"split_type":[0,0,0,0,0,0,0,0,0,0,0,0,0,0,0,0,0,0,0,0,0,0,0],"sum_hessian":[7.9E1,5.4E1,2.5E1,2.2E1,3.2E1,1E1,1.5E1,7E0,1.5E1,1.1E1,2.1E1,1.2E1,3E0,1E0,6E0,1.2E1,3E0,3E0,8E0,2E1,1E0,1E0,1.1E1],"tree_param":{"num_deleted":"0","num_feature":"6","num_nodes":"23","size_leaf_vector":"1"}},{"base_weights":[5.1641243E1,-1.4823934E3,3.0630793E3,-3.3310522E3,-8.890223E2,4.543365E3,1.2582671E3,-2.06467E3,-2.0607852E2,2.4882152E2,-1.9864559E3,2.6063214E2,2.1622827E3,2.4314324E3,7.446399E1,-1.17274284E2,-9.494385E0,-4.3047054E1,1.1492617E2,4.048694E1,-1.0790835E2,3.2904396E1,1.4728584E2,2.839358E1,1.3236903E2,6.039253E1,-2.5232E1],"categories":[],"categories_nodes":[],"categories_segments":[],"categories_sizes":[],"default_left":[0,0,0,0,0,0,0,0,0,0,0,0,0,0,0,0,0,0,0,0,0,0,0,0,0,0,0],"id":8,"left_children":[1,3,5,7,9,11,13,15,-1,17,19,-1,21,23,25,-1,-1,-1,-1,-1,-1,-1,-1,-1,-1,-1,-1],"loss_changes":[3.83352E8,5.737035E7,6.908912E7,4.504608E6,5.4188716E7,1.2632864E7,1.9262102E7,3.239898E6,0E0,5.2021908E7,1.2310584E7,0E0,3.953646E6,1.313656E6,5.860319E6,0E0,0E0,0E0,0E0,0E0,0E0,0E0,0E0,0E0,0E0,0E0,0E0],"parents":[2147483647,0,0,1,1,2,2,3,3,4,4,5,5,6,6,7,7,9,9,10,10,12,12,13,13,14,14],"right_children":[2,4,6,8,10,12,14,16,-1,18,20,-1,22,24,26,-1,-1,-1,-1,-1,-1,-1,-1,-1,-1,-1,-1],"split_conditions":[1.6722E4,1.0015E4,1.4385E4,9.364E3,1.3754E4,1.3754E4,1.4395E4,1.2181E4,-2.0607852E2,1.5189E4,1.0947E4,2.6063214E2,1.7816E4,1.713E4,1.4405E4,-1.17274284E2,-9.494385E0,-4.3047054E1,1.1492617E2,4.048694E1,-1.0790835E2,3.2904396E1,1.4728584E2,2.839358E1,1.3236903E2,6.039253E1,-2.5232E1],"split_indices":[0,0,2,1,1,3,3,2,0,3,0,0,0,1,1,0,0,0,0,0,0,0,0,0,0,0,0],"split_type":[0,0,0,0,0,0,0,0,0,0,0,0,0,0,0,0,0,0,0,0,0,0,0,0,0,0,0],"sum_hessian":[8.1E1,5.4E1,2.7E1,1.2E1,4.2E1,1.4E1,1.3E1,6E0,6E0,2.1E1,2.1E1,1E1,4E0,6E0,7E0,5E0,1E0,1.4E1,7E0,1E0,2E1,2E0,2E0,1E0,5E0,2E0,5E0],"tree_param":{"num_deleted":"0","num_feature":"6","num_nodes":"27","size_leaf_vector":"1"}},{"base_weights":[6.196401E1,-9.5511224E2,3.7312969E3,-2.2251963E3,-5.1333332E1,2.3004362E2,5.502262E2,-2.4551785E3,4.3305435E2,2.0177776E3,-8.343984E2,-1.9477344E2,5.559085E1,-1.4366473E2,-7.703373E1,-6.995679E0,3.947476E1,-6.150671E1,1.4381087E2,-5.4034138E1,1.5153911E2,1.9390869E0,-1.6547094E1],"categories":[],"categories_nodes":[],"categories_segments":[],"categories_sizes":[],"default_left":[0,0,0,0,0,0,0,0,0,0,0,0,0,0,0,0,0,0,0,0,0,0,0],"id":9,"left_children":[1,3,5,7,9,-1,11,13,15,17,19,21,-1,-1,-1,-1,-1,-1,-1,-1,-1,-1,-1],"loss_changes":[3.095871E8,7.449765E7,4.7259744E7,1.7569688E7,6.4873324E7,0E0,2.3084775E6,5.132416E6,7.231485E5,3.4207636E7,3.0881392E7,1.08243055E5,0E0,0E0,0E0,0E0,0E0,0E0,0E0,0E0,0E0,0E0,0E0],"parents":[2147483647,0,0,1,1,2,2,3,3,4,4,6,6,7,7,8,8,9,9,10,10,11,11],"right_children":[2,4,6,8,10,-1,12,14,16,18,20,22,-1,-1,-1,-1,-1,-1,-1,-1,-1,-1,-1],"split_conditions":[1.8944E4,1.247E4,1.6722E4,2.1725E4,1.3598E4,2.3004362E2,1.321E4,1.0895E4,1.0862E4,1.0306E4,2.3541E4,2.1259E4,5.559085E1,-1.4366473E2,-7.703373E1,-6.995679E0,3.947476E1,-6.150671E1,1.4381087E2,-5.4034138E1,1.5153911E2,1.9390869E0,-1.6547094E1],"split_indices":[0,0,3,4,1,0,4,0,0,1,4,0,0,0,0,0,0,0,0,0,0,0,0],"split_type":[0,0,0,0,0,0,0,0,0,0,0,0,0,0,0,0,0,0,0,0,0,0,0],"sum_hessian":[8.1E1,6.4E1,1.7E1,2.6E1,3.8E1,1.3E1,4E0,2.4E1,2E0,1E1,2.8E1,2E0,2E0,1.5E1,9E0,1E0,1E0,2E0,8E0,2.7E1,1E0,1E0,1E0],"tree_param":{"num_deleted":"0","num_feature":"6","num_nodes":"23","size_leaf_vector":"1"}},{"base_weights":[3.2461376E1,-2.2909868E3,1.4947721E3,1.2513246E3,-2.551485E3,4.5352103E2,3.3889966E3,4.476074E0,8.937327E1,-3.166929E3,-6.2680316E2,-1.1878229E2,6.898145E2,1.6371592E3,2.2571138E2,-1.1305708E2,-1.942144E2,-7.364056E1,1.5353152E2,9.673337E1,-3.856776E0,1.0256152E2,3.0338123E1],"categories":[],"categories_nodes":[],"categories_segments":[],"categories_sizes":[],"default_left":[0,0,0,0,0,0,0,0,0,0,0,0,0,0,0,0,0,0,0,0,0,0,0],"id":10,"left_children":[1,3,5,7,9,11,13,-1,-1,15,17,-1,19,21,-1,-1,-1,-1,-1,-1,-1,-1,-1],"loss_changes":[2.9901597E8,3.4566784E7,1.0497063E8,1.708653E6,3.592003E7,2.5705252E7,3.0062704E7,0E0,0E0,6.811664E6,3.2674984E7,0E0,3.2610388E7,2.595308E6,0E0,0E0,0E0,0E0,0E0,0E0,0E0,0E0,0E0],"parents":[2147483647,0,0,1,1,2,2,3,3,4,4,5,5,6,6,9,9,10,10,12,12,13,13],"right_children":[2,4,6,8,10,12,14,-1,-1,16,18,-1,20,22,-1,-1,-1,-1,-1,-1,-1,-1,-1],"split_conditions":[1.276E4,7.975E3,1.8944E4,1.1143E4,1.5936E4,7.61E3,1.3401E4,4.476074E0,8.937327E1,1.0947E4,1.1608E4,-1.1878229E2,1.3713E4,1.321E4,2.2571138E2,-1.1305708E2,-1.942144E2,-7.364056E1,1.5353152E2,9.673337E1,-3.856776E0,1.0256152E2,3.0338123E1],"split_indices":[0,5,0,0,4,5,5,0,0,4,0,0,5,3,0,0,0,0,0,0,0,0,0],"split_type":[0,0,0,0,0,0,0,0,0,0,0,0,0,0,0,0,0,0,0,0,0,0,0],"sum_hessian":[8.6E1,3.3E1,5.3E1,2E0,3.1E1,3.5E1,1.8E1,1E0,1E0,2.3E1,8E0,2E0,3.3E1,8E0,1E1,1.2E1,1.1E1,7E0,1E0,1.2E1,2.1E1,5E0,3E0],"tree_param":{"num_deleted":"0","num_feature":"6","num_nodes":"23","size_leaf_vector":"1"}},{"base_weights":[-1.6653435E2,-9.9336346E2,3.1019412E3,-3.142419E3,-1.9983623E2,3.7421646E3,8.567456E1,-2.230032E3,-2.1287968E2,-1.7663082E3,3.9828387E2,2.1745691E2,2.20801E3,3.3945767E2,-1.689187E1,-1.2094277E2,-3.8243897E0,-4.9421307E1,-1.2014933E2,5.4990242E1,-8.029015E1,1.9368605E1,1.2473317E2,4.2612796E0,2.1198048E1],"categories":[],"categories_nodes":[],"categories_segments":[],"categories_sizes":[],"default_left":[0,0,0,0,0,0,0,0,0,0,0,0,0,0,0,0,0,0,0,0,0,0,0,0,0],"id":11,"left_children":[1,3,5,7,9,11,13,15,-1,17,19,-1,21,23,-1,-1,-1,-1,-1,-1,-1,-1,-1,-1,-1],"loss_changes":[2.273864E8,1.1362941E8,3.250784E7,8.819904E6,4.7550412E7,3.433728E6,5.4460225E5,4.69466E6,0E0,4.558472E6,5.3784696E7,0E0,2.164988E6,2.8318E4,0E0,0E0,0E0,0E0,0E0,0E0,0E0,0E0,0E0,0E0,0E0],"parents":[2147483647,0,0,1,1,2,2,3,3,4,4,5,5,6,6,7,7,9,9,10,10,12,12,13,13],"right_children":[2,4,6,8,10,12,14,16,-1,18,20,-1,22,24,-1,-1,-1,-1,-1,-1,-1,-1,-1,-1,-1],"split_conditions":[1.8944E4,1.0792E4,1.4395E4,1.276E4,1.1474E4,1.4385E4,2.1725E4,1.6611E4,-2.1287968E2,1.2759E4,1.8581E4,2.1745691E2,1.5388E4,1.999E4,-1.689187E1,-1.2094277E2,-3.8243897E0,-4.9421307E1,-1.2014933E2,5.4990242E1,-8.029015E1,1.9368605E1,1.2473317E2,4.2612796E0,2.1198048E1],"split_indices":[0,0,3,2,4,2,0,3,0,0,2,0,2,0,0,0,0,0,0,0,0,0,0,0,0],"split_type":[0,0,0,0,0,0,0,0,0,0,0,0,0,0,0,0,0,0,0,0,0,0,0,0,0],"sum_hessian":[8.2E1,6.6E1,1.6E1,1.7E1,4.9E1,1.3E1,3E0,1.1E1,6E0,1.3E1,3.6E1,8E0,5E0,2E0,1E0,1E1,1E0,7E0,6E0,2.7E1,9E0,1E0,4E0,1E0,1E0],"tree_param":{"num_deleted":"0","num_feature":"6","num_nodes":"25","size_leaf_vector":"1"}},{"base_weights":[9.767859E1,-2.270644E3,1.384E3,-2.472205E3,4.3466177E2,3.25724E2,2.934246E3,-1.0247412E2,-2.7416943E3,-6.3545165E0,3.895415E1,1.5054669E2,7.1743576E1,3.6127969E3,4.0955307E2,-3.4307446E1,1.6040022E1,-9.101067E1,-1.6019283E2,-7.0426094E1,2.2642948E1,3.7296795E1,1.9622667E2,-5.8563232E0,4.8763737E1],"categories":[],"categories_nodes":[],"categories_segments":[],"categories_sizes":[],"default_left":[0,0,0,0,0,0,0,0,0,0,0,0,0,0,0,0,0,0,0,0,0,0,0,0,0],"id":12,"left_children":[1,3,5,7,9,11,13,15,17,-1,-1,-1,19,21,23,-1,-1,-1,-1,-1,-1,-1,-1,-1,-1],"loss_changes":[2.6818144E8,1.79784E7,9.255779E7,1.8238944E7,6.7945194E5,2.365366E7,3.7922384E7,1.2083358E6,5.241008E6,0E0,0E0,0E0,1.9254874E7,1.3159264E7,1.9019545E6,0E0,0E0,0E0,0E0,0E0,0E0,0E0,0E0,0E0,0E0],"parents":[2147483647,0,0,1,1,2,2,3,3,4,4,5,5,6,6,7,7,8,8,12,12,13,13,14,14],"right_children":[2,4,6,8,10,12,14,16,18,-1,-1,-1,20,22,24,-1,-1,-1,-1,-1,-1,-1,-1,-1,-1],"split_conditions":[1.276E4,2.1725E4,1.8944E4,7.962E3,1.0862E4,1.321E4,1.6722E4,9.498E3,1.0947E4,-6.3545165E0,3.895415E1,1.5054669E2,1.0895E4,1.0677E4,1.321E4,-3.4307446E1,1.6040022E1,-9.101067E1,-1.6019283E2,-7.0426094E1,2.2642948E1,3.7296795E1,1.9622667E2,-5.8563232E0,4.8763737E1],"split_indices":[0,4,0,5,0,0,3,0,4,0,0,0,5,5,4,0,0,0,0,0,0,0,0,0,0],"split_type":[0,0,0,0,0,0,0,0,0,0,0,0,0,0,0,0,0,0,0,0,0,0,0,0,0],"sum_hessian":[8.6E1,3E1,5.6E1,2.8E1,2E0,3.4E1,2.2E1,3E0,2.5E1,1E0,1E0,2E0,3.2E1,1.7E1,5E0,1E0,2E0,1E1,1.5E1,6E0,2.6E1,2E0,1.5E1,3E0,2E0],"tree_param":{"num_deleted":"0","num_feature":"6","num_nodes":"25","size_leaf_vector":"1"}},{"base_weights":[-1.0320431E2,-2.0054961E3,4.0370453E2,-2.5033682E3,2.3842993E2,-5.698759E2,1.1295571E3,-2.6984011E3,-8.8877997E2,2.9762623E1,-7.892838E1,6.4496747E2,-1.3938904E3,-7.807453E1,1.5030626E3,-3.3449757E1,-1.4110374E2,-5.4957836E1,-1.170066E1,2.7602538E-1,-6.1956544E0,-2.5460325E1,1.5403085E2,-1.3341908E2,1.773877E0,1.0329207E2,-4.4118923E1],"categories":[],"categories_nodes":[],"categories_segments":[],"categories_sizes":[],"default_left":[0,0,0,0,0,0,0,0,0,0,0,0,0,0,0,0,0,0,0,0,0,0,0,0,0,0,0],"id":13,"left_children":[1,3,5,7,9,11,13,15,17,-1,19,21,23,-1,25,-1,-1,-1,-1,-1,-1,-1,-1,-1,-1,-1,-1],"loss_changes":[7.795271E7,1.9589072E7,4.5870972E7,2.010288E6,4.999447E5,2.8928372E7,3.9536496E7,1.123864E6,1.56026E5,0E0,1.2080787E4,3.5302628E7,3.1063852E7,0E0,4.612455E7,0E0,0E0,0E0,0E0,0E0,0E0,0E0,0E0,0E0,0E0,0E0,0E0],"parents":[2147483647,0,0,1,1,2,2,3,3,4,4,5,5,6,6,7,7,8,8,10,10,11,11,12,12,14,14],"right_children":[2,4,6,8,10,12,14,16,18,-1,20,22,24,-1,26,-1,-1,-1,-1,-1,-1,-1,-1,-1,-1,-1,-1],"split_conditions":[1.0677E4,1.6611E4,1.2628E4,1.472E4,7.975E3,1.2759E4,1.0947E4,7.237E3,7.049E3,2.9762623E1,8.816E3,1.3791E4,1.1474E4,-7.807453E1,2.2015E4,-3.3449757E1,-1.4110374E2,-5.4957836E1,-1.170066E1,2.7602538E-1,-6.1956544E0,-2.5460325E1,1.5403085E2,-1.3341908E2,1.773877E0,1.0329207E2,-4.4118923E1],"split_indices":[1,4,5,5,1,1,3,5,1,0,1,4,5,0,3,0,0,0,0,0,0,0,0,0,0,0,0],"split_type":[0,0,0,0,0,0,0,0,0,0,0,0,0,0,0,0,0,0,0,0,0,0,0,0,0,0,0],"sum_hessian":[7.9E1,1.6E1,6.3E1,1.3E1,3E0,2.7E1,3.6E1,1.1E1,2E0,1E0,2E0,1.1E1,1.6E1,4E0,3.2E1,1E0,1E1,1E0,1E0,1E0,1E0,8E0,3E0,8E0,8E0,2.6E1,6E0],"tree_param":{"num_deleted":"0","num_feature":"6","num_nodes":"27","size_leaf_vector":"1"}},{"base_weights":[-4.196825E1,-1.08587E3,2.159181E3,-2.8916035E3,-4.0456082E2,3.450399E3,6.215057E2,-1.706381E2,-1.0625023E3,-1.2435664E3,7.648448E2,4.0500866E1,1.8971513E2,-4.638986E2,1.2760522E3,-7.4260254E0,-8.111584E1,-2.0651371E1,-9.629775E1,8.1570915E1,-4.7688477E1,-5.0632717E1,3.182141E0,1.1170855E2,2.123156E1],"categories":[],"categories_nodes":[],"categories_segments":[],"categories_sizes":[],"default_left":[0,0,0,0,0,0,0,0,0,0,0,0,0,0,0,0,0,0,0,0,0,0,0,0,0],"id":14,"left_children":[1,3,5,7,9,11,13,-1,15,17,19,-1,-1,21,23,-1,-1,-1,-1,-1,-1,-1,-1,-1,-1],"loss_changes":[1.9995397E8,7.141568E7,5.344883E7,1.1625968E7,4.41212E7,1.0547104E7,1.0538226E7,0E0,2.3173535E6,1.394004E7,2.9852804E7,0E0,0E0,1.8013965E6,6.393163E6,0E0,0E0,0E0,0E0,0E0,0E0,0E0,0E0,0E0,0E0],"parents":[2147483647,0,0,1,1,2,2,3,3,4,4,5,5,6,6,8,8,9,9,10,10,13,13,14,14],"right_children":[2,4,6,8,10,12,14,-1,16,18,20,-1,-1,22,24,-1,-1,-1,-1,-1,-1,-1,-1,-1,-1],"split_conditions":[1.701E4,1.0677E4,1.4395E4,1.5388E4,1.5189E4,1.0677E4,1.321E4,-1.706381E2,2.0139E4,1.0862E4,1.4405E4,4.0500866E1,1.8971513E2,1.1738E4,1.7187E4,-7.4260254E0,-8.111584E1,-2.0651371E1,-9.629775E1,8.1570915E1,-4.7688477E1,-5.0632717E1,3.182141E0,1.1170855E2,2.123156E1],"split_indices":[0,0,3,5,4,5,4,0,4,5,0,0,0,4,5,0,0,0,0,0,0,0,0,0,0],"split_type":[0,0,0,0,0,0,0,0,0,0,0,0,0,0,0,0,0,0,0,0,0,0,0,0,0],"sum_hessian":[8.5E1,5.8E1,2.7E1,1.5E1,4.3E1,1.4E1,1.3E1,1.1E1,4E0,2.5E1,1.8E1,2E0,1.2E1,5E0,8E0,2E0,2E0,1.2E1,1.3E1,1.2E1,6E0,2E0,3E0,3E0,5E0],"tree_param":{"num_deleted":"0","num_feature":"6","num_nodes":"25","size_leaf_vector":"1"}},{"base_weights":[-8.326844E0,-1.0675049E3,2.25641E3,-2.8092302E3,-4.0061722E2,1.7790945E2,8.042037E2,-1.3355712E3,-3.4916287E3,1.2792294E3,-1.5262053E3,-4.486123E2,1.4754729E3,-7.8059906E1,4.5476076E-1,-4.1837524E1,-1.8367207E2,-3.704272E1,1.2596747E2,-1.05492004E2,-1.323394E1,-4.8944958E1,3.062793E0,1.8507202E1,9.481538E1],"categories":[],"categories_nodes":[],"categories_segments":[],"categories_sizes":[],"default_left":[0,0,0,0,0,0,0,0,0,0,0,0,0,0,0,0,0,0,0,0,0,0,0,0,0],"id":15,"left_children":[1,3,5,7,9,-1,11,13,15,17,19,21,23,-1,-1,-1,-1,-1,-1,-1,-1,-1,-1,-1,-1],"loss_changes":[2.1829709E8,7.088977E7,5.1961584E7,1.2432256E7,8.892988E7,0E0,1.3276567E7,2.137948E6,2.235848E6,4.9464256E7,2.0057152E7,1.6822212E6,3.949698E6,0E0,0E0,0E0,0E0,0E0,0E0,0E0,0E0,0E0,0E0,0E0,0E0],"parents":[2147483647,0,0,1,1,2,2,3,3,4,4,6,6,7,7,8,8,9,9,10,10,11,11,12,12],"right_children":[2,4,6,8,10,-1,12,14,16,18,20,22,24,-1,-1,-1,-1,-1,-1,-1,-1,-1,-1,-1,-1],"split_conditions":[1.701E4,1.0792E4,1.3754E4,8.997E3,1.3434E4,1.7790945E2,1.321E4,1.3932E4,8.251E3,1.0862E4,1.9692E4,1.1738E4,1.7697E4,-7.8059906E1,4.5476076E-1,-4.1837524E1,-1.8367207E2,-3.704272E1,1.2596747E2,-1.05492004E2,-1.323394E1,-4.8944958E1,3.062793E0,1.8507202E1,9.481538E1],"split_indices":[0,0,3,1,1,0,4,3,4,1,4,4,0,0,0,0,0,0,0,0,0,0,0,0,0],"split_type":[0,0,0,0,0,0,0,0,0,0,0,0,0,0,0,0,0,0,0,0,0,0,0,0,0],"sum_hessian":[8.9E1,6.1E1,2.8E1,1.6E1,4.5E1,1.4E1,1.4E1,6E0,1E1,1.8E1,2.7E1,5E0,9E0,5E0,1E0,1E0,9E0,7E0,1.1E1,1.8E1,9E0,2E0,3E0,3E0,6E0],"tree_param":{"num_deleted":"0","num_feature":"6","num_nodes":"25","size_leaf_vector":"1"}},{"base_weights":[-1.7283907E2,-1.8866592E3,1.01986957E3,-2.7138765E3,-7.864224E2,2.4457944E3,2.5439699E2,-1.3715073E3,-3.095329E3,1.1703479E3,-1.5362081E3,2.3962422E2,3.1061836E3,-2.7234772E2,9.887182E2,-8.24678E1,4.4338378E-1,-7.213073E1,-1.7074614E2,-5.4697094E1,1.0049529E2,-9.951617E1,-2.5119122E1,4.7794792E1,-2.7826109E1,1.951077E2,7.635963E1,-7.11941E1,3.9963024E1,1.3407457E2,2.4156588E1],"categories":[],"categories_nodes":[],"categories_segments":[],"categories_sizes":[],"default_left":[0,0,0,0,0,0,0,0,0,0,0,0,0,0,0,0,0,0,0,0,0,0,0,0,0,0,0,0,0,0,0],"id":16,"left_children":[1,3,5,7,9,11,13,15,17,19,21,23,25,27,29,-1,-1,-1,-1,-1,-1,-1,-1,-1,-1,-1,-1,-1,-1,-1,-1],"loss_changes":[1.6953934E8,2.8810344E7,5.286161E7,5.48368E6,2.5272432E7,2.4023512E7,1.3033668E7,2.315836E6,2.468344E6,1.1703732E7,4.633806E6,3.3832625E6,1.037944E7,2.5817922E7,1.0686291E7,0E0,0E0,0E0,0E0,0E0,0E0,0E0,0E0,0E0,0E0,0E0,0E0,0E0,0E0,0E0,0E0],"parents":[2147483647,0,0,1,1,2,2,3,3,4,4,5,5,6,6,7,7,8,8,9,9,10,10,11,11,12,12,13,13,14,14],"right_children":[2,4,6,8,10,12,14,16,18,20,22,24,26,28,30,-1,-1,-1,-1,-1,-1,-1,-1,-1,-1,-1,-1,-1,-1,-1,-1],"split_conditions":[1.276E4,1.0895E4,1.2965E4,7.975E3,1.1738E4,9.498E3,1.5926E4,7.962E3,8.251E3,1.2181E4,1.247E4,1.5388E4,1.4767E4,1.8024E4,1.7562E4,-8.24678E1,4.4338378E-1,-7.213073E1,-1.7074614E2,-5.4697094E1,1.0049529E2,-9.951617E1,-2.5119122E1,4.7794792E1,-2.7826109E1,1.951077E2,7.635963E1,-7.11941E1,3.9963024E1,1.3407457E2,2.4156588E1],"split_indices":[0,0,2,0,0,3,4,0,4,3,0,0,4,0,4,0,0,0,0,0,0,0,0,0,0,0,0,0,0,0,0],"split_type":[0,0,0,0,0,0,0,0,0,0,0,0,0,0,0,0,0,0,0,0,0,0,0,0,0,0,0,0,0,0,0],"sum_hessian":[8.1E1,3.3E1,4.8E1,1.8E1,1.5E1,1.6E1,3.2E1,5E0,1.3E1,4E0,1.1E1,4E0,1.2E1,1.9E1,1.3E1,4E0,1E0,3E0,1E1,1E0,3E0,7E0,4E0,2E0,2E0,7E0,5E0,9E0,1E1,2E0,1.1E1],"tree_param":{"num_deleted":"0","num_feature":"6","num_nodes":"31","size_leaf_vector":"1"}},{"base_weights":[-8.1584435E1,-6.4217847E2,1.5062501E3,-8.185303E0,-1.3815642E3,7.7592285E1,2.8093872E3,-1.476117E3,1.2399658E3,-1.8415614E3,2.0688079E3,-6.9725116E2,5.521704E2,3.8260442E3,1.1550562E3,1.2210483E1,-8.608873E1,-5.993217E1,1.0663726E2,-1.16443474E2,-3.040911E1,1.6149952E1,1.2715389E2,3.3004494E1,-6.0080444E1,8.527647E1,7.1878905E0,2.0703307E2,4.8458546E1,-1.9534864E1,7.711732E1],"categories":[],"categories_nodes":[],"categories_segments":[],"categories_sizes":[],"default_left":[0,0,0,0,0,0,0,0,0,0,0,0,0,0,0,0,0,0,0,0,0,0,0,0,0,0,0,0,0,0,0],"id":17,"left_children":[1,3,5,7,9,11,13,15,17,19,21,23,25,27,29,-1,-1,-1,-1,-1,-1,-1,-1,-1,-1,-1,-1,-1,-1,-1,-1],"loss_changes":[7.840864E7,3.0458448E7,4.2601964E7,6.778956E7,5.142468E7,4.797686E6,1.5763344E7,7.604864E6,4.6099196E7,1.4811584E7,2.490526E6,4.2160965E6,3.5231872E6,2.278736E6,4.194521E6,0E0,0E0,0E0,0E0,0E0,0E0,0E0,0E0,0E0,0E0,0E0,0E0,0E0,0E0,0E0,0E0],"parents":[2147483647,0,0,1,1,2,2,3,3,4,4,5,5,6,6,7,7,8,8,9,9,10,10,11,11,12,12,13,13,14,14],"right_children":[2,4,6,8,10,12,14,16,18,20,22,24,26,28,30,-1,-1,-1,-1,-1,-1,-1,-1,-1,-1,-1,-1,-1,-1,-1,-1],"split_conditions":[1.8944E4,1.3754E4,1.2965E4,1.0862E4,2.1725E4,1.1738E4,2.1084E4,7.962E3,1.0677E4,1.713E4,2.09E4,1.4587E4,1.1837E4,1.4752E4,1.4395E4,1.2210483E1,-8.608873E1,-5.993217E1,1.0663726E2,-1.16443474E2,-3.040911E1,1.6149952E1,1.2715389E2,3.3004494E1,-6.0080444E1,8.527647E1,7.1878905E0,2.0703307E2,4.8458546E1,-1.9534864E1,7.711732E1],"split_indices":[1,2,5,2,5,5,1,5,1,4,4,2,5,4,2,0,0,0,0,0,0,0,0,0,0,0,0,0,0,0,0],"split_type":[0,0,0,0,0,0,0,0,0,0,0,0,0,0,0,0,0,0,0,0,0,0,0,0,0,0,0,0,0,0,0],"sum_hessian":[8.6E1,6.4E1,2.2E1,3.5E1,2.9E1,1.1E1,1.1E1,1.6E1,1.9E1,2.6E1,3E0,4E0,7E0,6E0,5E0,2E0,1.4E1,5E0,1.4E1,1.8E1,8E0,1E0,2E0,1E0,3E0,1E0,6E0,5E0,1E0,1E0,4E0],"tree_param":{"num_deleted":"0","num_feature":"6","num_nodes":"31","size_leaf_vector":"1"}},{"base_weights":[-1.6205139E2,-2.1357979E3,8.103513E2,-4.7275146E1,-2.3845295E3,2.4452353E2,2.0227268E3,-3.2877798E2,1.9930836E1,-2.6162893E3,-5.1371924E2,1.8984459E3,-4.4829E2,2.6915747E3,2.3643489E2,-2.2432692E1,-2.2256591E0,-9.4683495E1,-1.6470328E2,-1.2965494E-1,-5.117744E1,-4.7425293E1,1.2813435E2,-3.9818497E1,5.093724E1,3.3279068E1,1.499715E2,-7.6517334E0,3.3845802E1],"categories":[],"categories_nodes":[],"categories_segments":[],"categories_sizes":[],"default_left":[0,0,0,0,0,0,0,0,0,0,0,0,0,0,0,0,0,0,0,0,0,0,0,0,0,0,0,0,0],"id":18,"left_children":[1,3,5,7,9,11,13,15,-1,17,19,21,23,25,27,-1,-1,-1,-1,-1,-1,-1,-1,-1,-1,-1,-1,-1,-1],"loss_changes":[1.6294995E8,1.4432776E7,3.860715E7,6.331357E5,9.495424E6,4.668545E7,2.0869256E7,8.225841E4,0E0,4.537152E6,1.0396946E6,2.5123468E7,1.5620014E7,6.111896E6,1.1329155E6,0E0,0E0,0E0,0E0,0E0,0E0,0E0,0E0,0E0,0E0,0E0,0E0,0E0,0E0],"parents":[2147483647,0,0,1,1,2,2,3,3,4,4,5,5,6,6,7,7,9,9,10,10,11,11,12,12,13,13,14,14],"right_children":[2,4,6,8,10,12,14,16,-1,18,20,22,24,26,28,-1,-1,-1,-1,-1,-1,-1,-1,-1,-1,-1,-1,-1,-1],"split_conditions":[1.247E4,7.962E3,1.8944E4,1.2267E4,1.9692E4,1.3598E4,1.4752E4,9.498E3,1.9930836E1,1.422E4,1.0862E4,1.0306E4,2.1247E4,1.0677E4,1.2759E4,-2.2432692E1,-2.2256591E0,-9.4683495E1,-1.6470328E2,-1.2965494E-1,-5.117744E1,-4.7425293E1,1.2813435E2,-3.9818497E1,5.093724E1,3.3279068E1,1.499715E2,-7.6517334E0,3.3845802E1],"split_indices":[0,5,0,3,5,1,3,0,0,3,0,1,5,5,5,0,0,0,0,0,0,0,0,0,0,0,0,0,0],"split_type":[0,0,0,0,0,0,0,0,0,0,0,0,0,0,0,0,0,0,0,0,0,0,0,0,0,0,0,0,0],"sum_hessian":[8.3E1,2.7E1,5.6E1,3E0,2.4E1,3.9E1,1.7E1,2E0,1E0,2.1E1,3E0,1.1E1,2.8E1,1.2E1,5E0,1E0,1E0,1.2E1,9E0,2E0,1E0,2E0,9E0,2.3E1,5E0,2E0,1E1,3E0,2E0],"tree_param":{"num_deleted":"0","num_feature":"6","num_nodes":"29","size_leaf_vector":"1"}},{"base_weights":[-1.327121E2,-1.5105851E3,3.9221753E2,-1.1763488E3,-1.3602806E2,1.779201E3,-1.7851907E2,-1.7341908E3,-8.532487E2,2.5738225E3,2.763386E2,5.545016E2,-1.1866855E3,-2.773407E1,-1.3644032E2,3.9898277E1,-5.9747414E1,-3.8509377E1,1.4926212E2,-1.2615381E1,2.6912931E1,-5.9574574E1,7.231166E1,-8.498805E1,9.7263916E1],"categories":[],"categories_nodes":[],"categories_segments":[],"categories_sizes":[],"default_left":[0,0,0,0,0,0,0,0,0,0,0,0,0,0,0,0,0,0,0,0,0,0,0,0,0],"id":19,"left_children":[1,3,5,7,-1,9,11,13,15,17,19,21,23,-1,-1,-1,-1,-1,-1,-1,-1,-1,-1,-1,-1],"loss_changes":[5.77321E7,5.696864E6,4.623055E7,1.944838E6,0E0,1.9590264E7,3.1696308E7,5.525332E6,8.852595E6,1.7432912E7,1.1050479E6,4.06471E7,3.2231316E7,0E0,0E0,0E0,0E0,0E0,0E0,0E0,0E0,0E0,0E0,0E0,0E0],"parents":[2147483647,0,0,1,1,2,2,3,3,5,5,6,6,7,7,8,8,9,9,10,10,11,11,12,12],"right_children":[2,4,6,8,-1,10,12,14,16,18,20,22,24,-1,-1,-1,-1,-1,-1,-1,-1,-1,-1,-1,-1],"split_conditions":[1.2181E4,1.1738E4,1.3784E4,1.0015E4,-1.3602806E2,1.3401E4,1.5926E4,9.374E3,1.1143E4,7.975E3,1.7562E4,1.1474E4,2.1084E4,-2.773407E1,-1.3644032E2,3.9898277E1,-5.9747414E1,-3.8509377E1,1.4926212E2,-1.2615381E1,2.6912931E1,-5.9574574E1,7.231166E1,-8.498805E1,9.7263916E1],"split_indices":[4,4,4,2,0,3,2,5,2,2,2,2,5,0,0,0,0,0,0,0,0,0,0,0,0],"split_type":[0,0,0,0,0,0,0,0,0,0,0,0,0,0,0,0,0,0,0,0,0,0,0,0,0],"sum_hessian":[7.8E1,2.1E1,5.7E1,1.8E1,3E0,1.6E1,4.1E1,5E0,1.3E1,1E1,6E0,2.4E1,1.7E1,3E0,2E0,2E0,1.1E1,1E0,9E0,2E0,4E0,8E0,1.6E1,1.5E1,2E0],"tree_param":{"num_deleted":"0","num_feature":"6","num_nodes":"25","size_leaf_vector":"1"}},{"base_weights":[3.3926296E1,-7.8510956E2,2.2166084E3,-2.4924587E3,-3.0103116E2,8.725503E2,2.9648733E3,-1.0117576E3,-3.202653E3,6.332497E2,-1.0910922E3,3.7750977E1,1.0765312E3,3.2743254E3,6.356224E2,-6.075589E1,1.2607422E-1,-3.5466457E1,-1.7128262E2,-3.168849E1,6.5318504E1,-7.118172E1,1.07731804E2,2.9289062E0,-9.758301E-2,7.517028E1,1.3690271E1,3.96251E1,1.7075511E2,4.07667E1,6.9049807E0],"categories":[],"categories_nodes":[],"categories_segments":[],"categories_sizes":[],"default_left":[0,0,0,0,0,0,0,0,0,0,0,0,0,0,0,0,0,0,0,0,0,0,0,0,0,0,0,0,0,0,0],"id":20,"left_children":[1,3,5,7,9,11,13,15,17,19,21,23,25,27,29,-1,-1,-1,-1,-1,-1,-1,-1,-1,-1,-1,-1,-1,-1,-1,-1],"loss_changes":[1.5726973E8,5.2145108E7,2.1550072E7,1.148188E7,3.8336016E7,1.662191E6,8.730648E6,1.240647E6,2.574176E6,2.1296496E7,3.3288962E7,2.595003E3,2.329665E6,1.835504E6,1.556345E5,0E0,0E0,0E0,0E0,0E0,0E0,0E0,0E0,0E0,0E0,0E0,0E0,0E0,0E0,0E0,0E0],"parents":[2147483647,0,0,1,1,2,2,3,3,4,4,5,5,6,6,7,7,8,8,9,9,10,10,11,11,12,12,13,13,14,14],"right_children":[2,4,6,8,10,12,14,16,18,20,22,24,26,28,30,-1,-1,-1,-1,-1,-1,-1,-1,-1,-1,-1,-1,-1,-1,-1,-1],"split_conditions":[1.8024E4,9.545E3,1.3401E4,9.364E3,1.3754E4,1.999E4,1.7816E4,1.713E4,8.251E3,1.2181E4,2.3125E4,1.8944E4,2.3541E4,1.1738E4,1.8581E4,-6.075589E1,1.2607422E-1,-3.5466457E1,-1.7128262E2,-3.168849E1,6.5318504E1,-7.118172E1,1.07731804E2,2.9289062E0,-9.758301E-2,7.517028E1,1.3690271E1,3.96251E1,1.7075511E2,4.07667E1,6.9049807E0],"split_indices":[0,0,5,1,1,0,4,5,4,4,4,0,1,1,0,0,0,0,0,0,0,0,0,0,0,0,0,0,0,0,0],"split_type":[0,0,0,0,0,0,0,0,0,0,0,0,0,0,0,0,0,0,0,0,0,0,0,0,0,0,0,0,0,0,0],"sum_hessian":[8.6E1,6.3E1,2.3E1,1.3E1,5E1,9E0,1.4E1,5E0,8E0,2.3E1,2.7E1,2E0,7E0,1.2E1,2E0,4E0,1E0,1E0,7E0,8E0,1.5E1,2.5E1,2E0,1E0,1E0,4E0,3E0,1E0,1.1E1,1E0,1E0],"tree_param":{"num_deleted":"0","num_feature":"6","num_nodes":"31","size_leaf_vector":"1"}},{"base_weights":[-1.5698628E2,-9.076208E2,1.8521813E3,-1.8504675E3,-8.756805E1,3.2783503E3,5.0935864E2,-9.6890936E2,-2.4323496E3,-3.1537186E2,2.1437249E3,1.8635628E2,1.6734062E3,-4.8396112E2,1.0665137E3,-9.6466194E1,-3.6406252E-1,-1.3424861E2,-2.6343409E1,3.2679226E1,-3.5781063E1,2.9344946E1,1.3143443E2,1.1193164E1,1.04098305E2,-4.217046E1,1.8403647E0,1.3002075E0,8.428093E1],"categories":[],"categories_nodes":[],"categories_segments":[],"categories_sizes":[],"default_left":[0,0,0,0,0,0,0,0,0,0,0,0,0,0,0,0,0,0,0,0,0,0,0,0,0,0,0,0,0],"id":21,"left_children":[1,3,5,7,9,11,13,15,17,19,21,-1,23,25,27,-1,-1,-1,-1,-1,-1,-1,-1,-1,-1,-1,-1,-1,-1],"loss_changes":[1.1630052E8,4.313626E7,3.854708E7,1.0980312E7,1.6433279E7,9.65592E5,7.157348E6,1.1068692E7,5.805888E6,1.1714619E7,7.22238E5,0E0,1.902825E6,9.669896E5,5.109643E6,0E0,0E0,0E0,0E0,0E0,0E0,0E0,0E0,0E0,0E0,0E0,0E0,0E0,0E0],"parents":[2147483647,0,0,1,1,2,2,3,3,4,4,5,5,6,6,7,7,8,8,9,9,10,10,12,12,13,13,14,14],"right_children":[2,4,6,8,10,12,14,16,18,20,22,-1,24,26,28,-1,-1,-1,-1,-1,-1,-1,-1,-1,-1,-1,-1,-1,-1],"split_conditions":[1.701E4,1.247E4,1.3754E4,1.1608E4,2.3541E4,1.4385E4,1.2965E4,1.0895E4,1.713E4,1.3434E4,1.3713E4,1.8635628E2,2.2114E4,2.0677E4,1.7697E4,-9.6466194E1,-3.6406252E-1,-1.3424861E2,-2.6343409E1,3.2679226E1,-3.5781063E1,2.9344946E1,1.3143443E2,1.1193164E1,1.04098305E2,-4.217046E1,1.8403647E0,1.3002075E0,8.428093E1],"split_indices":[0,0,3,4,4,2,4,0,4,0,0,0,0,2,0,0,0,0,0,0,0,0,0,0,0,0,0,0,0],"split_type":[0,0,0,0,0,0,0,0,0,0,0,0,0,0,0,0,0,0,0,0,0,0,0,0,0,0,0,0,0],"sum_hessian":[7.5E1,5.5E1,2E1,2.5E1,3E1,9E0,1.1E1,1.1E1,1.4E1,2.8E1,2E0,6E0,3E0,4E0,7E0,5E0,6E0,1.2E1,2E0,8E0,2E1,1E0,1E0,1E0,2E0,2E0,2E0,3E0,4E0],"tree_param":{"num_deleted":"0","num_feature":"6","num_nodes":"29","size_leaf_vector":"1"}},{"base_weights":[3.9221153E1,-1.1133097E3,1.2867068E3,-2.2291208E3,-5.953439E2,2.300121E3,6.1390216E2,-1.1138385E3,-1.5793817E2,-1.1975894E3,8.0912866E2,-3.487256E1,2.5843535E3,-9.169784E2,1.3409735E3,-6.523442E1,7.815186E-1,-1.9440582E1,-8.521867E1,1.1839707E2,1.2738142E0,5.065884E1,1.3889575E2,-5.4952984E1,8.939771E0,9.4577286E1,1.8143715E1],"categories":[],"categories_nodes":[],"categories_segments":[],"categories_sizes":[],"default_left":[0,0,0,0,0,0,0,0,0,0,0,0,0,0,0,0,0,0,0,0,0,0,0,0,0,0,0],"id":22,"left_children":[1,3,5,7,9,11,13,15,-1,17,19,-1,21,23,25,-1,-1,-1,-1,-1,-1,-1,-1,-1,-1,-1,-1],"loss_changes":[1.0782716E8,2.121304E7,2.313382E7,8.92342E6,2.4652448E7,1.3730568E7,2.6830012E7,1.529305E6,0E0,7.534836E6,1.0933781E7,0E0,1.13904E6,1.792667E6,7.929832E6,0E0,0E0,0E0,0E0,0E0,0E0,0E0,0E0,0E0,0E0,0E0,0E0],"parents":[2147483647,0,0,1,1,2,2,3,3,4,4,5,5,6,6,7,7,9,9,10,10,12,12,13,13,14,14],"right_children":[2,4,6,8,10,12,14,16,-1,18,20,-1,22,24,26,-1,-1,-1,-1,-1,-1,-1,-1,-1,-1,-1,-1],"split_conditions":[1.4251E4,1.0015E4,1.701E4,8.816E3,1.7187E4,7.975E3,1.8024E4,8.642E3,-1.5793817E2,1.2143E4,1.4752E4,-3.487256E1,1.0965E4,2.0677E4,1.4395E4,-6.523442E1,7.815186E-1,-1.9440582E1,-8.521867E1,1.1839707E2,1.2738142E0,5.065884E1,1.3889575E2,-5.4952984E1,8.939771E0,9.4577286E1,1.8143715E1],"split_indices":[0,0,1,1,3,2,0,1,0,0,2,0,1,2,3,0,0,0,0,0,0,0,0,0,0,0,0],"split_type":[0,0,0,0,0,0,0,0,0,0,0,0,0,0,0,0,0,0,0,0,0,0,0,0,0,0,0],"sum_hessian":[7.3E1,3.8E1,3.5E1,1.1E1,2.7E1,1.3E1,2.2E1,6E0,5E0,1.9E1,8E0,1E0,1.2E1,7E0,1.5E1,5E0,1E0,8E0,1.1E1,2E0,6E0,2E0,1E1,6E0,1E0,9E0,6E0],"tree_param":{"num_deleted":"0","num_feature":"6","num_nodes":"27","size_leaf_vector":"1"}},{"base_weights":[7.591908E1,-1.5760702E3,6.832148E2,-1.0751298E3,-2.4243608E3,1.6617361E3,2.608227E2,-1.3006362E3,2.604414E2,-2.8219679E1,-1.320145E2,-9.940945E2,2.3018494E3,-6.8907E2,1.1982953E3,-7.60969E1,-2.7825685E0,2.1413258E1,-1.8801514E0,3.2215626E1,-8.775005E1,8.079726E1,1.6066441E2,-7.182093E1,6.046067E0,1.06219215E2,-1.6420557E0],"categories":[],"categories_nodes":[],"categories_segments":[],"categories_sizes":[],"default_left":[0,0,0,0,0,0,0,0,0,0,0,0,0,0,0,0,0,0,0,0,0,0,0,0,0,0,0],"id":23,"left_children":[1,3,5,7,9,11,13,15,17,-1,-1,19,21,23,25,-1,-1,-1,-1,-1,-1,-1,-1,-1,-1,-1,-1],"loss_changes":[7.832674E7,6.317296E6,2.3125802E7,4.856438E6,1.321184E6,3.1188808E7,3.733614E7,3.497028E6,1.6616084E5,0E0,0E0,6.117467E6,3.559744E6,1.2885958E7,2.4012742E7,0E0,0E0,0E0,0E0,0E0,0E0,0E0,0E0,0E0,0E0,0E0,0E0],"parents":[2147483647,0,0,1,1,2,2,3,3,4,4,5,5,6,6,7,7,8,8,11,11,12,12,13,13,14,14],"right_children":[2,4,6,8,10,12,14,16,18,-1,-1,20,22,24,26,-1,-1,-1,-1,-1,-1,-1,-1,-1,-1,-1,-1],"split_conditions":[1.1608E4,1.0895E4,1.3434E4,1.0677E4,1.0306E4,1.0862E4,1.6722E4,1.6611E4,1.0965E4,-2.8219679E1,-1.320145E2,7.975E3,1.5926E4,1.713E4,1.3754E4,-7.60969E1,-2.7825685E0,2.1413258E1,-1.8801514E0,3.2215626E1,-8.775005E1,8.079726E1,1.6066441E2,-7.182093E1,6.046067E0,1.06219215E2,-1.6420557E0],"split_indices":[0,1,1,1,2,1,0,3,0,0,0,1,3,3,3,0,0,0,0,0,0,0,0,0,0,0,0],"split_type":[0,0,0,0,0,0,0,0,0,0,0,0,0,0,0,0,0,0,0,0,0,0,0,0,0,0,0],"sum_hessian":[7.6E1,2E1,5.6E1,1.4E1,6E0,1.6E1,4E1,1.2E1,2E0,1E0,5E0,3E0,1.3E1,2E1,2E1,1E1,2E0,1E0,1E0,1E0,2E0,9E0,4E0,1E1,1E1,1.1E1,9E0],"tree_param":{"num_deleted":"0","num_feature":"6","num_nodes":"27","size_leaf_vector":"1"}},{"base_weights":[-1.3147089E2,-1.3779786E3,6.327185E2,-2.0977734E3,-8.052233E2,1.3129803E2,1.6282651E3,-1.0232418E3,-1.5130638E2,-1.2310775E3,1.2059626E3,1.5266653E3,-3.7173663E2,3.676565E2,2.397047E3,-5.8708546E1,8.3154297E-1,1.2696517E1,-7.230036E1,-5.0115307E1,1.1380772E2,-3.6246095E0,9.677581E1,-2.8499311E1,1.24525024E2,4.2618996E1,-4.682676E0,1.328177E2,4.1005566E1],"categories":[],"categories_nodes":[],"categories_segments":[],"categories_sizes":[],"default_left":[0,0,0,0,0,0,0,0,0,0,0,0,0,0,0,0,0,0,0,0,0,0,0,0,0,0,0,0,0],"id":24,"left_children":[1,3,5,7,9,11,13,15,-1,17,19,21,23,25,27,-1,-1,-1,-1,-1,-1,-1,-1,-1,-1,-1,-1,-1,-1],"loss_changes":[8.279272E7,1.1915612E7,2.674233E7,1.086918E7,1.8614072E7,2.6538488E7,1.6563112E7,1.2751035E6,0E0,5.793116E6,1.1734486E7,6.67848E6,1.7307792E7,1.8686904E6,2.319508E6,0E0,0E0,0E0,0E0,0E0,0E0,0E0,0E0,0E0,0E0,0E0,0E0,0E0,0E0],"parents":[2147483647,0,0,1,1,2,2,3,3,4,4,5,5,6,6,7,7,9,9,10,10,11,11,12,12,13,13,14,14],"right_children":[2,4,6,8,10,12,14,16,-1,18,20,22,24,26,28,-1,-1,-1,-1,-1,-1,-1,-1,-1,-1,-1,-1,-1,-1],"split_conditions":[1.276E4,1.0015E4,1.8944E4,9.364E3,1.4587E4,1.3434E4,1.2759E4,1.713E4,-1.5130638E2,7.962E3,1.0583E4,1.0862E4,2.3541E4,2.0677E4,2.1084E4,-5.8708546E1,8.3154297E-1,1.2696517E1,-7.230036E1,-5.0115307E1,1.1380772E2,-3.6246095E0,9.677581E1,-2.8499311E1,1.24525024E2,4.2618996E1,-4.682676E0,1.328177E2,4.1005566E1],"split_indices":[0,0,0,1,4,1,5,5,0,5,0,1,4,1,1,0,0,0,0,0,0,0,0,0,0,0,0,0,0],"split_type":[0,0,0,0,0,0,0,0,0,0,0,0,0,0,0,0,0,0,0,0,0,0,0,0,0,0,0,0,0],"sum_hessian":[8.5E1,3.2E1,5.3E1,1.3E1,1.9E1,3.6E1,1.7E1,7E0,6E0,1.6E1,3E0,9E0,2.7E1,7E0,1E1,6E0,1E0,2E0,1.4E1,1E0,2E0,2E0,7E0,2.6E1,1E0,3E0,4E0,8E0,2E0],"tree_param":{"num_deleted":"0","num_feature":"6","num_nodes":"29","size_leaf_vector":"1"}},{"base_weights":[4.083877E1,-1.6648851E3,6.4543695E2,-2.0575151E3,-2.749523E2,5.014801E1,1.5858882E3,-2.0275366E2,-2.4404817E3,-6.791223E2,3.555918E2,1.2065347E3,-7.228659E2,2.5099302E3,7.465775E2,-2.7223927E1,2.0560522E1,-4.1870834E1,-1.3189372E2,6.925513E0,-4.989183E1,8.107422E-1,2.5858643E1,-1.2145934E1,1.05024925E2,-5.1753498E1,9.037928E1,1.5242354E2,2.883268E0,1.2810063E1,9.542339E1],"categories":[],"categories_nodes":[],"categories_segments":[],"categories_sizes":[],"default_left":[0,0,0,0,0,0,0,0,0,0,0,0,0,0,0,0,0,0,0,0,0,0,0,0,0,0,0,0,0,0,0],"id":25,"left_children":[1,3,5,7,9,11,13,15,17,19,21,23,25,27,29,-1,-1,-1,-1,-1,-1,-1,-1,-1,-1,-1,-1,-1,-1,-1,-1],"loss_changes":[8.6670616E7,1.1440332E7,3.463057E7,1.158048E7,1.7705724E6,3.5734376E7,1.673954E7,1.0631225E6,2.221064E6,1.1805755E6,1.5612472E5,2.1242394E7,2.0831388E7,1.4351288E7,7.4877355E6,0E0,0E0,0E0,0E0,0E0,0E0,0E0,0E0,0E0,0E0,0E0,0E0,0E0,0E0,0E0,0E0],"parents":[2147483647,0,0,1,1,2,2,3,3,4,4,5,5,6,6,7,7,8,8,9,9,10,10,11,11,12,12,13,13,14,14],"right_children":[2,4,6,8,10,12,14,16,18,20,22,24,26,28,30,-1,-1,-1,-1,-1,-1,-1,-1,-1,-1,-1,-1,-1,-1,-1,-1],"split_conditions":[1.1474E4,1.5388E4,1.701E4,8.251E3,1.9692E4,1.3598E4,1.4385E4,1.0792E4,8.456E3,7.962E3,7.975E3,1.1837E4,2.1084E4,1.7697E4,2.2135E4,-2.7223927E1,2.0560522E1,-4.1870834E1,-1.3189372E2,6.925513E0,-4.989183E1,8.107422E-1,2.5858643E1,-1.2145934E1,1.05024925E2,-5.1753498E1,9.037928E1,1.5242354E2,2.883268E0,1.2810063E1,9.542339E1],"split_indices":[0,5,0,5,5,1,2,0,1,1,0,1,5,5,0,0,0,0,0,0,0,0,0,0,0,0,0,0,0,0,0],"split_type":[0,0,0,0,0,0,0,0,0,0,0,0,0,0,0,0,0,0,0,0,0,0,0,0,0,0,0,0,0,0,0],"sum_hessian":[8.2E1,2.1E1,6.1E1,1.6E1,5E0,3.8E1,2.3E1,3E0,1.3E1,3E0,2E0,1.5E1,2.3E1,1E1,1.3E1,2E0,1E0,2E0,1.1E1,1E0,2E0,1E0,1E0,6E0,9E0,2.1E1,2E0,8E0,2E0,1E1,3E0],"tree_param":{"num_deleted":"0","num_feature":"6","num_nodes":"31","size_leaf_vector":"1"}},{"base_weights":[-3.0995836E1,-1.654328E3,5.4389087E2,5.8155518E1,-1.9141083E3,1.3866493E2,1.5942771E3,-1.897461E2,2.0046509E1,-2.2028665E3,-2.083584E2,1.3653691E2,2.5413626E1,2.0792703E3,2.7774576E2,-1.1566382E1,-2.6645753E0,-5.3088173E1,-1.2361505E2,1.7335108E1,-4.68385E1,1.9735992E1,-2.2530941E1,3.672224E1,1.2046368E2,4.104092E1,-9.949756E0],"categories":[],"categories_nodes":[],"categories_segments":[],"categories_sizes":[],"default_left":[0,0,0,0,0,0,0,0,0,0,0,0,0,0,0,0,0,0,0,0,0,0,0,0,0,0,0],"id":26,"left_children":[1,3,5,7,9,11,13,15,-1,17,19,-1,21,23,25,-1,-1,-1,-1,-1,-1,-1,-1,-1,-1,-1,-1],"loss_changes":[8.209096E7,1.0343316E7,2.7445774E7,4.159725E5,9.392E6,1.4021276E7,1.0915644E7,4.6941797E3,0E0,2.601704E6,1.9420304E6,0E0,8.440551E6,3.99988E6,1.7167682E6,0E0,0E0,0E0,0E0,0E0,0E0,0E0,0E0,0E0,0E0,0E0,0E0],"parents":[2147483647,0,0,1,1,2,2,3,3,4,4,5,5,6,6,7,7,9,9,10,10,12,12,13,13,14,14],"right_children":[2,4,6,8,10,12,14,16,-1,18,20,-1,22,24,26,-1,-1,-1,-1,-1,-1,-1,-1,-1,-1,-1,-1],"split_conditions":[1.1608E4,7.962E3,1.999E4,1.2267E4,1.9692E4,1.1738E4,1.4395E4,9.498E3,2.0046509E1,7.962E3,1.0947E4,1.3653691E2,1.4395E4,1.2674E4,2.1247E4,-1.1566382E1,-2.6645753E0,-5.3088173E1,-1.2361505E2,1.7335108E1,-4.68385E1,1.9735992E1,-2.2530941E1,3.672224E1,1.2046368E2,4.104092E1,-9.949756E0],"split_indices":[0,5,0,3,5,0,3,0,0,0,0,0,5,5,0,0,0,0,0,0,0,0,0,0,0,0,0],"split_type":[0,0,0,0,0,0,0,0,0,0,0,0,0,0,0,0,0,0,0,0,0,0,0,0,0,0,0],"sum_hessian":[8.6E1,2.2E1,6.4E1,3E0,1.9E1,4.7E1,1.7E1,2E0,1E0,1.6E1,3E0,1E0,4.6E1,1.2E1,5E0,1E0,1E0,4E0,1.2E1,2E0,1E0,2.6E1,2E1,3E0,9E0,2E0,3E0],"tree_param":{"num_deleted":"0","num_feature":"6","num_nodes":"27","size_leaf_vector":"1"}},{"base_weights":[-6.433284E1,-6.008887E2,1.4717473E3,-1.3916652E3,-2.0048824E2,1.2256384E2,5.328272E2,-1.8036064E3,-1.2986784E2,3.5464896E2,-1.0900557E3,1.2793848E2,9.163929E2,-5.072824E1,-1.4090373E2,1.0474941E1,-4.566753E1,-5.897724E1,6.181271E1,-1.1039459E2,-1.9061546E1,1.8524292E1,-7.329675E0,-2.197998E0,5.5862774E1],"categories":[],"categories_nodes":[],"categories_segments":[],"categories_sizes":[],"default_left":[0,0,0,0,0,0,0,0,0,0,0,0,0,0,0,0,0,0,0,0,0,0,0,0,0],"id":27,"left_children":[1,3,5,7,9,-1,11,13,15,17,19,21,23,-1,-1,-1,-1,-1,-1,-1,-1,-1,-1,-1,-1],"loss_changes":[6.6819784E7,1.8718624E7,1.8007592E7,1.0161496E7,2.06337E7,0E0,1.7463752E6,9.147744E6,1.7866735E6,3.6624604E7,1.1835884E7,5.2041984E5,1.2065085E6,0E0,0E0,0E0,0E0,0E0,0E0,0E0,0E0,0E0,0E0,0E0,0E0],"parents":[2147483647,0,0,1,1,2,2,3,3,4,4,6,6,7,7,8,8,9,9,10,10,11,11,12,12],"right_children":[2,4,6,8,10,-1,12,14,16,18,20,22,24,-1,-1,-1,-1,-1,-1,-1,-1,-1,-1,-1,-1],"split_conditions":[1.8024E4,1.1608E4,1.4385E4,1.5388E4,1.6722E4,1.2256384E2,1.2674E4,1.276E4,1.0947E4,1.2181E4,1.2628E4,1.9692E4,1.701E4,-5.072824E1,-1.4090373E2,1.0474941E1,-4.566753E1,-5.897724E1,6.181271E1,-1.1039459E2,-1.9061546E1,1.8524292E1,-7.329675E0,-2.197998E0,5.5862774E1],"split_indices":[0,0,2,5,2,0,5,2,0,4,5,2,2,0,0,0,0,0,0,0,0,0,0,0,0],"split_type":[0,0,0,0,0,0,0,0,0,0,0,0,0,0,0,0,0,0,0,0,0,0,0,0,0],"sum_hessian":[7.9E1,5.9E1,2E1,1.9E1,4E1,9E0,1.1E1,1.4E1,5E0,2.5E1,1.5E1,6E0,5E0,9E0,5E0,4E0,1E0,9E0,1.6E1,5E0,1E1,3E0,3E0,1E0,4E0],"tree_param":{"num_deleted":"0","num_feature":"6","num_nodes":"25","size_leaf_vector":"1"}},{"base_weights":[5.5101482E1,-1.1084036E3,7.7850836E2,-6.3505206E2,-1.25412285E2,1.3638231E3,1.6435992E2,-1.1375692E3,8.914329E2,-2.1901535E2,1.8264921E3,-1.4229755E1,1.2019228E2,-6.842945E1,-2.5650991E1,-3.4568813E1,1.1256919E2,1.8841406E1,-5.6954132E1,1.0305595E2,1.5702393E1,7.0461876E1,-1.305853E1],"categories":[],"categories_nodes":[],"categories_segments":[],"categories_sizes":[],"default_left":[0,0,0,0,0,0,0,0,0,0,0,0,0,0,0,0,0,0,0,0,0,0,0],"id":28,"left_children":[1,3,5,7,-1,9,11,13,15,17,19,21,-1,-1,-1,-1,-1,-1,-1,-1,-1,-1,-1],"loss_changes":[7.2406344E7,2.0273504E7,1.8827764E7,2.0958272E7,0E0,2.0172944E7,1.083283E7,2.183552E6,1.6624352E7,4.266751E6,6.804776E6,9.507369E6,0E0,0E0,0E0,0E0,0E0,0E0,0E0,0E0,0E0,0E0,0E0],"parents":[2147483647,0,0,1,1,2,2,3,3,5,5,6,6,7,7,8,8,9,9,10,10,11,11],"right_children":[2,4,6,8,-1,10,12,14,16,18,20,22,-1,-1,-1,-1,-1,-1,-1,-1,-1,-1,-1],"split_conditions":[1.276E4,1.52E4,1.4385E4,1.1837E4,-1.25412285E2,1.0862E4,2.3541E4,1.3821E4,1.2143E4,1.2143E4,1.7562E4,1.3434E4,1.2019228E2,-6.842945E1,-2.5650991E1,-3.4568813E1,1.1256919E2,1.8841406E1,-5.6954132E1,1.0305595E2,1.5702393E1,7.0461876E1,-1.305853E1],"split_indices":[0,2,2,1,0,2,4,4,4,1,4,1,0,0,0,0,0,0,0,0,0,0,0],"split_type":[0,0,0,0,0,0,0,0,0,0,0,0,0,0,0,0,0,0,0,0,0,0,0],"sum_hessian":[8.4E1,3.2E1,5.2E1,2.5E1,7E0,2.6E1,2.6E1,1.9E1,6E0,6E0,2E1,2.5E1,1E0,1.3E1,6E0,3E0,3E0,4E0,2E0,1.7E1,3E0,3E0,2.2E1],"tree_param":{"num_deleted":"0","num_feature":"6","num_nodes":"23","size_leaf_vector":"1"}},{"base_weights":[1.470669E2,-3.7748935E2,1.6637747E3,-1.2493667E3,7.828904E1,2.007988E3,4.685765E2,-4.0322217E2,-1.4885854E3,9.5597736E2,-4.1221518E2,6.8922437E2,2.259301E3,-2.7580078E0,7.4423486E2,-4.6614895E1,2.1830975E1,-8.221223E1,-1.3299072E1,-6.3120617E1,9.387146E1,-4.8493137E1,4.928021E0,4.009398E1,8.78147E0,3.5867447E1,1.2372212E2,2.8056397E0,4.774523E1],"categories":[],"categories_nodes":[],"categories_segments":[],"categories_sizes":[],"default_left":[0,0,0,0,0,0,0,0,0,0,0,0,0,0,0,0,0,0,0,0,0,0,0,0,0,0,0,0,0],"id":29,"left_children":[1,3,5,7,9,11,13,15,17,19,21,23,25,-1,27,-1,-1,-1,-1,-1,-1,-1,-1,-1,-1,-1,-1,-1,-1],"loss_changes":[6.507154E7,2.4338164E7,7.698572E6,3.650458E6,1.804497E7,3.745596E6,9.072866E5,3.0730982E6,2.607612E6,3.3032178E7,7.7860745E6,9.0603E4,2.537548E6,0E0,5.262835E5,0E0,0E0,0E0,0E0,0E0,0E0,0E0,0E0,0E0,0E0,0E0,0E0,0E0,0E0],"parents":[2147483647,0,0,1,1,2,2,3,3,4,4,5,5,6,6,7,7,8,8,9,9,10,10,11,11,12,12,14,14],"right_children":[2,4,6,8,10,12,14,16,18,20,22,24,26,-1,28,-1,-1,-1,-1,-1,-1,-1,-1,-1,-1,-1,-1,-1,-1],"split_conditions":[1.8024E4,1.1608E4,1.6722E4,8.997E3,1.3434E4,1.1143E4,2.09E4,1.0015E4,1.3932E4,1.0583E4,1.4251E4,2.0677E4,1.2628E4,-2.7580078E0,2.1725E4,-4.6614895E1,2.1830975E1,-8.221223E1,-1.3299072E1,-6.3120617E1,9.387146E1,-4.8493137E1,4.928021E0,4.009398E1,8.78147E0,3.5867447E1,1.2372212E2,2.8056397E0,4.774523E1],"split_indices":[0,0,3,2,1,3,1,0,1,2,0,0,1,0,2,0,0,0,0,0,0,0,0,0,0,0,0,0,0],"split_type":[0,0,0,0,0,0,0,0,0,0,0,0,0,0,0,0,0,0,0,0,0,0,0,0,0,0,0,0,0],"sum_hessian":[8E1,6E1,2E1,2E1,4E1,1.5E1,5E0,5E0,1.5E1,1.4E1,2.6E1,3E0,1.2E1,2E0,3E0,3E0,2E0,1.3E1,2E0,4E0,1E1,1.2E1,1.4E1,2E0,1E0,2E0,1E1,1E0,2E0],"tree_param":{"num_deleted":"0","num_feature":"6","num_nodes":"29","size_leaf_vector":"1"}},{"base_weights":[-5.4651478E1,-3.4207663E2,8.710109E2,-1.01032524E2,-1.7235502E3,1.9639888E3,-1.024264E2,-1.081101E3,3.1428662E2,-2.2562886E3,9.402279E1,1.2950847E2,9.4501056E2,-4.0227158E1,4.1371793E2,-6.883791E1,-2.5214523E1,1.1911792E2,3.447797E0,-4.8992416E1,-1.2854475E2,-4.9550295E0,1.2006739E1,9.43138E0,6.93195E1,-6.4016724E0,4.260199E1],"categories":[],"categories_nodes":[],"categories_segments":[],"categories_sizes":[],"default_left":[0,0,0,0,0,0,0,0,0,0,0,0,0,0,0,0,0,0,0,0,0,0,0,0,0,0,0],"id":30,"left_children":[1,3,5,7,9,11,13,15,17,19,21,-1,23,-1,25,-1,-1,-1,-1,-1,-1,-1,-1,-1,-1,-1,-1],"loss_changes":[2.1316588E7,2.0138624E7,2.0416128E7,2.1912958E7,8.92676E6,3.29484E6,4.319183E6,2.034326E6,1.9115456E7,2.91948E5,1.08450414E5,0E0,1.4077475E6,0E0,1.7713199E6,0E0,0E0,0E0,0E0,0E0,0E0,0E0,0E0,0E0,0E0,0E0,0E0],"parents":[2147483647,0,0,1,1,2,2,3,3,4,4,5,5,6,6,7,7,8,8,9,9,10,10,12,12,14,14],"right_children":[2,4,6,8,10,12,14,16,18,20,22,-1,24,-1,26,-1,-1,-1,-1,-1,-1,-1,-1,-1,-1,-1,-1],"split_conditions":[1.8944E4,1.7697E4,1.4395E4,1.0583E4,2.4081E4,2.0249E4,2.0677E4,1.0015E4,1.0895E4,1.999E4,1.4251E4,1.2950847E2,2.1342E4,-4.0227158E1,2.0128E4,-6.883791E1,-2.5214523E1,1.1911792E2,3.447797E0,-4.8992416E1,-1.2854475E2,-4.9550295E0,1.2006739E1,9.43138E0,6.93195E1,-6.4016724E0,4.260199E1],"split_indices":[1,2,3,3,3,1,2,2,3,2,1,0,1,0,3,0,0,0,0,0,0,0,0,0,0,0,0],"split_type":[0,0,0,0,0,0,0,0,0,0,0,0,0,0,0,0,0,0,0,0,0,0,0,0,0,0,0],"sum_hessian":[7.8E1,6E1,1.8E1,5.2E1,8E0,8E0,1E1,1.5E1,3.7E1,6E0,2E0,4E0,4E0,4E0,6E0,9E0,6E0,3E0,3.4E1,2E0,4E0,1E0,1E0,2E0,2E0,3E0,3E0],"tree_param":{"num_deleted":"0","num_feature":"6","num_nodes":"27","size_leaf_vector":"1"}},{"base_weights":[1.04672104E2,-1.3447444E3,6.2569653E2,-1.5102312E3,2.0674902E2,1.780512E2,1.4698757E3,-7.2079474E2,-2.090607E3,-6.442798E0,2.1948975E1,-4.5247256E2,1.0088578E3,1.7829004E3,1.116168E2,-4.0645397E1,2.7056153E0,-5.2798798E1,-1.26548546E2,1.4046638E1,-3.8549423E1,1.373232E2,2.391195E1,3.1699146E1,9.919063E1,-9.675196E0,3.330249E1],"categories":[],"categories_nodes":[],"categories_segments":[],"categories_sizes":[],"default_left":[0,0,0,0,0,0,0,0,0,0,0,0,0,0,0,0,0,0,0,0,0,0,0,0,0,0,0],"id":31,"left_children":[1,3,5,7,9,11,13,15,17,-1,-1,19,21,23,25,-1,-1,-1,-1,-1,-1,-1,-1,-1,-1,-1,-1],"loss_changes":[6.2766276E7,5.960776E6,2.2789754E7,7.6565E6,2.9037825E5,2.1934056E7,8.72954E6,7.577805E5,2.339116E6,0E0,0E0,5.8230255E6,1.528265E7,2.666432E6,9.747282E5,0E0,0E0,0E0,0E0,0E0,0E0,0E0,0E0,0E0,0E0,0E0,0E0],"parents":[2147483647,0,0,1,1,2,2,3,3,4,4,5,5,6,6,7,7,8,8,11,11,12,12,13,13,14,14],"right_children":[2,4,6,8,10,12,14,16,18,-1,-1,20,22,24,26,-1,-1,-1,-1,-1,-1,-1,-1,-1,-1,-1,-1],"split_conditions":[1.1608E4,2.0985E4,1.8944E4,9.364E3,1.0862E4,1.5926E4,1.6722E4,1.6611E4,1.2267E4,-6.442798E0,2.1948975E1,1.2268E4,1.7562E4,1.1143E4,2.6099E4,-4.0645397E1,2.7056153E0,-5.2798798E1,-1.26548546E2,1.4046638E1,-3.8549423E1,1.373232E2,2.391195E1,3.1699146E1,9.919063E1,-9.675196E0,3.330249E1],"split_indices":[0,4,0,1,0,4,3,3,3,0,0,1,4,3,1,0,0,0,0,0,0,0,0,0,0,0,0],"split_type":[0,0,0,0,0,0,0,0,0,0,0,0,0,0,0,0,0,0,0,0,0,0,0,0,0,0,0],"sum_hessian":[8.1E1,2.1E1,6E1,1.9E1,2E0,4E1,2E1,9E0,1E1,1E0,1E0,2.3E1,1.7E1,1.6E1,4E0,8E0,1E0,4E0,6E0,7E0,1.6E1,3E0,1.4E1,3E0,1.3E1,3E0,1E0],"tree_param":{"num_deleted":"0","num_feature":"6","num_nodes":"27","size_leaf_vector":"1"}},{"base_weights":[1.4782385E2,-5.178934E2,4.6665588E2,3.6380875E2,-1.109807E3,-1.06562E3,6.6394965E2,-3.7193695E2,1.161544E3,-2.2858801E3,-2.6050534E2,7.683252E0,-1.294445E3,1.4018204E3,1.18881676E2,1.2165149E1,-4.4709633E1,7.263224E1,-7.348999E0,-3.404939E1,-1.219932E2,-3.2004932E1,1.615132E1,-1.5702051E1,-7.138588E1,1.1851953E2,-2.9473816E1,-4.1948957E0,7.543092E1],"categories":[],"categories_nodes":[],"categories_segments":[],"categories_sizes":[],"default_left":[0,0,0,0,0,0,0,0,0,0,0,0,0,0,0,0,0,0,0,0,0,0,0,0,0,0,0,0,0],"id":32,"left_children":[1,3,5,7,9,11,13,15,17,19,21,-1,23,25,27,-1,-1,-1,-1,-1,-1,-1,-1,-1,-1,-1,-1,-1,-1],"loss_changes":[1.8283096E7,1.501672E7,1.8241408E7,7.4751845E6,1.6384808E7,2.1519315E6,2.0747214E7,2.4667475E6,2.498983E6,6.8376E4,2.6433208E6,0E0,3.35604E5,4.382892E7,8.862688E6,0E0,0E0,0E0,0E0,0E0,0E0,0E0,0E0,0E0,0E0,0E0,0E0,0E0,0E0],"parents":[2147483647,0,0,1,1,2,2,3,3,4,4,5,5,6,6,7,7,8,8,9,9,10,10,12,12,13,13,14,14],"right_children":[2,4,6,8,10,12,14,16,18,20,22,-1,24,26,28,-1,-1,-1,-1,-1,-1,-1,-1,-1,-1,-1,-1,-1,-1],"split_conditions":[1.2181E4,1.1608E4,1.0792E4,9.364E3,1.5388E4,1.0965E4,1.4752E4,7.962E3,1.0895E4,7.237E3,1.2181E4,7.683252E0,1.2674E4,1.7697E4,2.1084E4,1.2165149E1,-4.4709633E1,7.263224E1,-7.348999E0,-3.404939E1,-1.219932E2,-3.2004932E1,1.615132E1,-1.5702051E1,-7.138588E1,1.1851953E2,-2.9473816E1,-4.1948957E0,7.543092E1],"split_indices":[1,5,5,5,5,3,2,5,2,1,2,0,1,5,5,0,0,0,0,0,0,0,0,0,0,0,0,0,0],"split_type":[0,0,0,0,0,0,0,0,0,0,0,0,0,0,0,0,0,0,0,0,0,0,0,0,0,0,0,0,0],"sum_hessian":[8.4E1,2.7E1,5.7E1,1.1E1,1.6E1,6E0,5.1E1,6E0,5E0,6E0,1E1,1E0,5E0,2.1E1,3E1,3E0,3E0,4E0,1E0,1E0,5E0,6E0,4E0,1E0,4E0,1.4E1,7E0,2.7E1,3E0],"tree_param":{"num_deleted":"0","num_feature":"6","num_nodes":"29","size_leaf_vector":"1"}},{"base_weights":[1.14559105E2,-1.2182965E3,3.921811E2,-5.6655316E2,-1.6959974E3,1.1242776E3,-6.839574E1,1.14064455E1,-7.3702167E2,-9.670468E1,-6.6855226E0,-4.147489E2,1.7823914E3,-5.891853E2,5.719246E2,-4.699927E0,-4.2341328E1,7.05417E0,-5.0292603E1,1.2935857E2,5.541116E1,-5.8440014E1,-4.3864343E-1,7.623663E1,-1.5770223E0],"categories":[],"categories_nodes":[],"categories_segments":[],"categories_sizes":[],"default_left":[0,0,0,0,0,0,0,0,0,0,0,0,0,0,0,0,0,0,0,0,0,0,0,0,0],"id":33,"left_children":[1,3,5,7,9,11,13,-1,15,-1,-1,17,19,21,23,-1,-1,-1,-1,-1,-1,-1,-1,-1,-1],"loss_changes":[2.7860016E7,3.086528E6,2.0982472E7,1.1164135E6,2.345214E6,2.5047754E7,1.3342385E7,0E0,3.4404225E5,0E0,0E0,2.7703428E6,6.356308E6,7.3908925E6,1.0397846E7,0E0,0E0,0E0,0E0,0E0,0E0,0E0,0E0,0E0,0E0],"parents":[2147483647,0,0,1,1,2,2,3,3,4,4,5,5,6,6,8,8,11,11,12,12,13,13,14,14],"right_children":[2,4,6,8,10,12,14,-1,16,-1,-1,18,20,22,24,-1,-1,-1,-1,-1,-1,-1,-1,-1,-1],"split_conditions":[1.0677E4,8.997E3,1.3754E4,8.251E3,1.3821E4,1.0583E4,1.6611E4,1.14064455E1,9.374E3,-9.670468E1,-6.6855226E0,8.997E3,1.2256E4,1.5388E4,1.4395E4,-4.699927E0,-4.2341328E1,7.05417E0,-5.0292603E1,1.2935857E2,5.541116E1,-5.8440014E1,-4.3864343E-1,7.623663E1,-1.5770223E0],"split_indices":[1,1,2,2,2,3,1,0,3,0,0,3,3,4,3,0,0,0,0,0,0,0,0,0,0],"split_type":[0,0,0,0,0,0,0,0,0,0,0,0,0,0,0,0,0,0,0,0,0,0,0,0,0],"sum_hessian":[7.3E1,1.2E1,6.1E1,6E0,6E0,2.3E1,3.8E1,1E0,5E0,5E0,1E0,7E0,1.6E1,2.1E1,1.7E1,1E0,4E0,4E0,3E0,6E0,1E1,1E1,1.1E1,6E0,1.1E1],"tree_param":{"num_deleted":"0","num_feature":"6","num_nodes":"25","size_leaf_vector":"1"}},{"base_weights":[-5.4615883E1,-9.80432E2,5.161674E2,-6.742607E2,-1.977578E3,1.4721923E3,1.9255515E2,-1.0459691E3,2.5069824E1,-1.3848487E1,-1.1074255E2,1.9605122E3,2.9877792E2,-2.715937E1,8.679943E1,-6.30792E1,-1.3808838E1,2.3926147E1,-5.9624756E1,3.3113216E1,1.11841545E2,3.1515821E1,-6.61766E0,-8.016478E0,1.15844925E2],"categories":[],"categories_nodes":[],"categories_segments":[],"categories_sizes":[],"default_left":[0,0,0,0,0,0,0,0,0,0,0,0,0,0,0,0,0,0,0,0,0,0,0,0,0],"id":34,"left_children":[1,3,5,7,9,11,13,15,17,-1,-1,19,21,23,-1,-1,-1,-1,-1,-1,-1,-1,-1,-1,-1],"loss_changes":[4.4366616E7,8.436116E6,1.5804353E7,6.784844E6,2.211114E6,6.863258E6,1.3611738E7,2.473218E6,6.091722E6,0E0,0E0,1.747204E6,7.9810725E5,1.1609177E7,0E0,0E0,0E0,0E0,0E0,0E0,0E0,0E0,0E0,0E0,0E0],"parents":[2147483647,0,0,1,1,2,2,3,3,4,4,5,5,6,6,7,7,8,8,11,11,12,12,13,13],"right_children":[2,4,6,8,10,12,14,16,18,-1,-1,20,22,24,-1,-1,-1,-1,-1,-1,-1,-1,-1,-1,-1],"split_conditions":[1.276E4,1.52E4,1.3401E4,1.0895E4,7.975E3,1.7562E4,2.3125E4,1.472E4,1.2628E4,-1.3848487E1,-1.1074255E2,1.0792E4,1.8024E4,2.6099E4,8.679943E1,-6.30792E1,-1.3808838E1,2.3926147E1,-5.9624756E1,3.3113216E1,1.11841545E2,3.1515821E1,-6.61766E0,-8.016478E0,1.15844925E2],"split_indices":[0,2,1,0,4,4,0,4,0,0,0,2,4,4,0,0,0,0,0,0,0,0,0,0,0],"split_type":[0,0,0,0,0,0,0,0,0,0,0,0,0,0,0,0,0,0,0,0,0,0,0,0,0],"sum_hessian":[8.2E1,3.1E1,5.1E1,2.5E1,6E0,1.2E1,3.9E1,1.6E1,9E0,1E0,5E0,8E0,4E0,3.5E1,4E0,1.2E1,4E0,7E0,2E0,2E0,6E0,2E0,2E0,3.4E1,1E0],"tree_param":{"num_deleted":"0","num_feature":"6","num_nodes":"25","size_leaf_vector":"1"}},{"base_weights":[1.4541237E0,-8.54393E2,3.546378E2,-6.1924207E2,-1.4041965E3,5.9660965E1,1.1493009E3,-9.823158E2,4.815796E1,1.3825196E0,-1.6474462E3,4.006766E2,-1.6528749E3,1.9313611E3,5.4714435E2,-2.273385E1,-5.475699E1,1.3505501E1,-2.0589941E1,-9.4448784E1,-1.0994971E1,1.0385795E2,5.0915866E0,-1.1230526E2,4.227197E0,1.0951574E2,9.440967E0,-5.3644633E0,4.6821674E1],"categories":[],"categories_nodes":[],"categories_segments":[],"categories_sizes":[],"default_left":[0,0,0,0,0,0,0,0,0,0,0,0,0,0,0,0,0,0,0,0,0,0,0,0,0,0,0,0,0],"id":35,"left_children":[1,3,5,7,9,11,13,15,17,-1,19,21,23,25,27,-1,-1,-1,-1,-1,-1,-1,-1,-1,-1,-1,-1,-1,-1],"loss_changes":[2.6902868E7,2.49192E6,1.4699086E7,4.893616E6,2.483625E6,2.8110338E7,6.94895E6,2.75958E5,9.279379E5,0E0,1.653384E6,1.9828808E7,8.435412E6,2.74509E6,2.9028718E6,0E0,0E0,0E0,0E0,0E0,0E0,0E0,0E0,0E0,0E0,0E0,0E0,0E0,0E0],"parents":[2147483647,0,0,1,1,2,2,3,3,4,4,5,5,6,6,7,7,8,8,10,10,11,11,12,12,13,13,14,14],"right_children":[2,4,6,8,10,12,14,16,18,-1,20,22,24,26,28,-1,-1,-1,-1,-1,-1,-1,-1,-1,-1,-1,-1,-1,-1],"split_conditions":[1.2143E4,1.0965E4,1.8944E4,9.545E3,6.55E3,1.8581E4,2.0249E4,9.498E3,1.0677E4,1.3825196E0,2.0139E4,1.1608E4,2.0128E4,1.4752E4,1.2759E4,-2.273385E1,-5.475699E1,1.3505501E1,-2.0589941E1,-9.4448784E1,-1.0994971E1,1.0385795E2,5.0915866E0,-1.1230526E2,4.227197E0,1.0951574E2,9.440967E0,-5.3644633E0,4.6821674E1],"split_indices":[4,4,1,4,5,2,2,2,5,0,1,5,5,4,5,0,0,0,0,0,0,0,0,0,0,0,0,0,0],"split_type":[0,0,0,0,0,0,0,0,0,0,0,0,0,0,0,0,0,0,0,0,0,0,0,0,0,0,0,0,0],"sum_hessian":[8.7E1,2.5E1,6.2E1,1.9E1,6E0,4.6E1,1.6E1,1.2E1,7E0,1E0,5E0,3.9E1,7E0,6E0,1E1,3E0,9E0,5E0,2E0,4E0,1E0,5E0,3.4E1,5E0,2E0,5E0,1E0,4E0,6E0],"tree_param":{"num_deleted":"0","num_feature":"6","num_nodes":"29","size_leaf_vector":"1"}},{"base_weights":[-1.2621318E1,-2.971574E2,1.0213583E3,3.5593789E0,-1.0887047E3,2.0854915E3,4.9234702E2,-3.0677277E2,1.4858618E3,-1.3999028E3,1.1282149E2,2.4289504E3,9.204932E0,-1.8153593E2,7.8005383E2,-4.1032574E1,4.802297E0,1.229616E2,1.0765967E1,-2.4279785E0,-7.828928E1,2.725005E1,1.3818437E2,2.093257E1,-2.181228E1,4.5755306E1,-1.0885425E1],"categories":[],"categories_nodes":[],"categories_segments":[],"categories_sizes":[],"default_left":[0,0,0,0,0,0,0,0,0,0,0,0,0,0,0,0,0,0,0,0,0,0,0,0,0,0,0],"id":36,"left_children":[1,3,5,7,9,11,13,15,17,19,-1,21,-1,23,25,-1,-1,-1,-1,-1,-1,-1,-1,-1,-1,-1,-1],"loss_changes":[2.5899298E7,1.6428053E7,9.669046E6,2.3916134E7,2.2937766E7,3.471136E6,2.8559378E6,8.979818E6,1.0600852E7,3.958936E6,0E0,1.646924E6,0E0,9.470024E5,1.546728E6,0E0,0E0,0E0,0E0,0E0,0E0,0E0,0E0,0E0,0E0,0E0,0E0],"parents":[2147483647,0,0,1,1,2,2,3,3,4,4,5,5,6,6,7,7,8,8,9,9,11,11,13,13,14,14],"right_children":[2,4,6,8,10,12,14,16,18,20,-1,22,-1,24,26,-1,-1,-1,-1,-1,-1,-1,-1,-1,-1,-1,-1],"split_conditions":[1.8944E4,1.5926E4,1.4385E4,1.5936E4,2.3541E4,1.4752E4,1.9692E4,1.1608E4,1.7697E4,1.0947E4,1.1282149E2,1.9692E4,9.204932E0,2.0677E4,2.0249E4,-4.1032574E1,4.802297E0,1.229616E2,1.0765967E1,-2.4279785E0,-7.828928E1,2.725005E1,1.3818437E2,2.093257E1,-2.181228E1,4.5755306E1,-1.0885425E1],"split_indices":[1,2,2,3,4,4,2,1,3,4,0,1,0,1,4,0,0,0,0,0,0,0,0,0,0,0,0],"split_type":[0,0,0,0,0,0,0,0,0,0,0,0,0,0,0,0,0,0,0,0,0,0,0,0,0,0,0],"sum_hessian":[8.6E1,6.8E1,1.8E1,5E1,1.8E1,5E0,1.3E1,4.2E1,8E0,1.7E1,1E0,4E0,1E0,4E0,9E0,1.8E1,2.4E1,4E0,4E0,2E0,1.5E1,1E0,3E0,1E0,3E0,8E0,1E0],"tree_param":{"num_deleted":"0","num_feature":"6","num_nodes":"27","size_leaf_vector":"1"}},{"base_weights":[-8.5384514E1,-3.5350443E2,9.3225653E2,3.5309887E1,-7.211096E2,2.0942234E3,4.5067856E2,-5.456786E2,7.2302686E2,-1.1623396E3,4.9819922E2,1.2007932E2,2.1619287E1,5.326988E2,-1.53896E1,9.657593E0,-4.963795E1,-2.241678E1,6.481111E1,-4.0571922E1,-1.0983852E2,3.1096193E-1,8.220397E1,3.7196033E1,8.114323E0],"categories":[],"categories_nodes":[],"categories_segments":[],"categories_sizes":[],"default_left":[0,0,0,0,0,0,0,0,0,0,0,0,0,0,0,0,0,0,0,0,0,0,0,0,0],"id":37,"left_children":[1,3,5,7,9,11,13,15,17,19,21,-1,-1,23,-1,-1,-1,-1,-1,-1,-1,-1,-1,-1,-1],"loss_changes":[2.3521792E7,9.744712E6,9.128576E6,1.3979432E7,1.940892E7,1.515524E6,1.034899E6,6.4677685E6,1.1323852E7,7.655016E6,5.6272765E6,0E0,0E0,8.9638125E5,0E0,0E0,0E0,0E0,0E0,0E0,0E0,0E0,0E0,0E0,0E0],"parents":[2147483647,0,0,1,1,2,2,3,3,4,4,5,5,6,6,7,7,8,8,9,9,10,10,13,13],"right_children":[2,4,6,8,10,12,14,16,18,20,22,-1,-1,24,-1,-1,-1,-1,-1,-1,-1,-1,-1,-1,-1],"split_conditions":[1.8944E4,1.3401E4,2.0249E4,1.0862E4,1.999E4,1.3401E4,1.7816E4,1.0306E4,1.0677E4,1.7816E4,2.09E4,1.2007932E2,2.1619287E1,2.2015E4,-1.53896E1,9.657593E0,-4.963795E1,-2.241678E1,6.481111E1,-4.0571922E1,-1.0983852E2,3.1096193E-1,8.220397E1,3.7196033E1,8.114323E0],"split_indices":[1,2,1,2,5,3,5,5,1,3,3,0,0,2,0,0,0,0,0,0,0,0,0,0,0],"split_type":[0,0,0,0,0,0,0,0,0,0,0,0,0,0,0,0,0,0,0,0,0,0,0,0,0],"sum_hessian":[8.4E1,6.7E1,1.7E1,3.3E1,3.4E1,4E0,1.3E1,1.8E1,1.5E1,2.5E1,9E0,3E0,1E0,1.2E1,1E0,7E0,1.1E1,5E0,1E1,2E1,5E0,7E0,2E0,7E0,5E0],"tree_param":{"num_deleted":"0","num_feature":"6","num_nodes":"25","size_leaf_vector":"1"}},{"base_weights":[-7.659882E1,-9.4459607E2,2.0463574E2,9.088047E1,-1.2091453E3,4.5367978E2,-5.397209E2,-1.8649968E2,3.3796713E2,-1.5328636E3,-1.90392E2,7.083597E1,1.1251198E3,-1.6713655E3,3.0640244E2,-2.5587158E0,-1.142876E1,2.321521E1,2.1323242E0,-9.0377556E1,-4.7845882E1,6.850171E0,-3.749934E1,2.7406113E1,-3.1609262E1,1.2571079E2,1.6840584E1,-1.10542625E2,-1.0754931E1,-2.5120167E1,3.624027E1],"categories":[],"categories_nodes":[],"categories_segments":[],"categories_sizes":[],"default_left":[0,0,0,0,0,0,0,0,0,0,0,0,0,0,0,0,0,0,0,0,0,0,0,0,0,0,0,0,0,0,0],"id":38,"left_children":[1,3,5,7,9,11,13,15,17,19,21,23,25,27,29,-1,-1,-1,-1,-1,-1,-1,-1,-1,-1,-1,-1,-1,-1,-1,-1],"loss_changes":[1.9966274E7,5.588576E6,1.173827E7,4.0571544E5,4.984782E6,1.2001965E7,1.5832284E7,5.3844766E3,9.2128875E4,1.68784E5,1.0187947E6,1.0748329E7,1.7768786E7,5.023908E6,3.748212E6,0E0,0E0,0E0,0E0,0E0,0E0,0E0,0E0,0E0,0E0,0E0,0E0,0E0,0E0,0E0,0E0],"parents":[2147483647,0,0,1,1,2,2,3,3,4,4,5,5,6,6,7,7,8,8,9,9,10,10,11,11,12,12,13,13,14,14],"right_children":[2,4,6,8,10,12,14,16,18,20,22,24,26,28,30,-1,-1,-1,-1,-1,-1,-1,-1,-1,-1,-1,-1,-1,-1,-1,-1],"split_conditions":[1.1608E4,8.251E3,2.0128E4,1.0792E4,1.9692E4,1.5926E4,1.5189E4,9.498E3,1.0965E4,1.2143E4,1.0947E4,1.3598E4,1.4405E4,2.2114E4,1.2759E4,-2.5587158E0,-1.142876E1,2.321521E1,2.1323242E0,-9.0377556E1,-4.7845882E1,6.850171E0,-3.749934E1,2.7406113E1,-3.1609262E1,1.2571079E2,1.6840584E1,-1.10542625E2,-1.0754931E1,-2.5120167E1,3.624027E1],"split_indices":[0,5,2,0,5,4,0,0,0,5,0,5,0,2,5,0,0,0,0,0,0,0,0,0,0,0,0,0,0,0,0],"split_type":[0,0,0,0,0,0,0,0,0,0,0,0,0,0,0,0,0,0,0,0,0,0,0,0,0,0,0,0,0,0,0],"sum_hessian":[8E1,1.9E1,6.1E1,4E0,1.5E1,4.6E1,1.5E1,2E0,2E0,1.1E1,4E0,3E1,1.6E1,6E0,9E0,1E0,1E0,1E0,1E0,6E0,5E0,3E0,1E0,1.8E1,1.2E1,5E0,1.1E1,4E0,2E0,3E0,6E0],"tree_param":{"num_deleted":"0","num_feature":"6","num_nodes":"31","size_leaf_vector":"1"}},{"base_weights":[-8.0679955E1,-1.0295582E3,9.3065796E1,-4.2331555E2,-8.9681755E1,7.6777167E2,-2.1697527E2,1.6033863E1,-5.7541125E2,-4.2351123E2,1.393664E3,-8.693679E2,1.9543999E2,-3.7273838E1,-5.008252E0,1.5009111E1,-6.1112514E1,4.2205567E0,7.439413E1,2.6328455E1,-5.9182995E1,4.9141872E1,-7.5661364E0],"categories":[],"categories_nodes":[],"categories_segments":[],"categories_sizes":[],"default_left":[0,0,0,0,0,0,0,0,0,0,0,0,0,0,0,0,0,0,0,0,0,0,0],"id":39,"left_children":[1,3,5,7,-1,9,11,-1,13,15,17,19,21,-1,-1,-1,-1,-1,-1,-1,-1,-1,-1],"loss_changes":[1.2790312E7,4.799317E6,1.3972898E7,1.089786E6,0E0,1.6248142E7,1.2546517E7,0E0,4.9109025E5,4.9912355E6,1.60139E6,8.520452E6,8.066888E6,0E0,0E0,0E0,0E0,0E0,0E0,0E0,0E0,0E0,0E0],"parents":[2147483647,0,0,1,1,2,2,3,3,5,5,6,6,8,8,9,9,10,10,11,11,12,12],"right_children":[2,4,6,8,-1,10,12,-1,14,16,18,20,22,-1,-1,-1,-1,-1,-1,-1,-1,-1,-1],"split_conditions":[1.0306E4,9.364E3,1.3401E4,8.251E3,-8.9681755E1,1.0862E4,1.2628E4,1.6033863E1,1.2181E4,1.1474E4,7.61E3,1.2759E4,1.4395E4,-3.7273838E1,-5.008252E0,1.5009111E1,-6.1112514E1,4.2205567E0,7.439413E1,2.6328455E1,-5.9182995E1,4.9141872E1,-7.5661364E0],"split_indices":[1,1,2,2,0,2,5,0,2,5,4,1,5,0,0,0,0,0,0,0,0,0,0],"split_type":[0,0,0,0,0,0,0,0,0,0,0,0,0,0,0,0,0,0,0,0,0,0,0],"sum_hessian":[7.6E1,1.1E1,6.5E1,7E0,4E0,2E1,4.5E1,1E0,6E0,7E0,1.3E1,1.7E1,2.8E1,4E0,2E0,4E0,3E0,1E0,1.2E1,3E0,1.4E1,8E0,2E1],"tree_param":{"num_deleted":"0","num_feature":"6","num_nodes":"23","size_leaf_vector":"1"}},{"base_weights":[8.647964E1,-3.166215E2,1.0443947E3,-1.1626814E3,-4.563147E1,1.5937102E3,2.7071738E2,-7.3680896E2,-1.8670647E3,2.4780048E2,-1.1854529E3,1.8159169E3,5.286626E2,-3.6168863E2,7.741058E2,-4.8700634E1,-1.2868095E1,-1.0285769E2,-2.76677E1,-5.142563E0,8.097162E1,-7.006834E1,1.8944263E1,1.13572624E2,4.9090298E1,3.1401464E1,5.7640624E0,-3.4074234E1,-1.5709717E0,8.838835E0,4.88841E1],"categories":[],"categories_nodes":[],"categories_segments":[],"categories_sizes":[],"default_left":[0,0,0,0,0,0,0,0,0,0,0,0,0,0,0,0,0,0,0,0,0,0,0,0,0,0,0,0,0,0,0],"id":40,"left_children":[1,3,5,7,9,11,13,15,17,19,21,23,25,27,29,-1,-1,-1,-1,-1,-1,-1,-1,-1,-1,-1,-1,-1,-1,-1,-1],"loss_changes":[3.3924564E7,1.4161922E7,1.0618372E7,3.123992E6,1.6347838E7,2.589904E6,4.1001352E6,1.000319E6,1.10278E5,1.89242E7,3.908577E6,2.32948E6,9.190525E4,6.123009E5,6.78383E5,0E0,0E0,0E0,0E0,0E0,0E0,0E0,0E0,0E0,0E0,0E0,0E0,0E0,0E0,0E0,0E0],"parents":[2147483647,0,0,1,1,2,2,3,3,4,4,5,5,6,6,7,7,8,8,9,9,10,10,11,11,12,12,13,13,14,14],"right_children":[2,4,6,8,10,12,14,16,18,20,22,24,26,28,30,-1,-1,-1,-1,-1,-1,-1,-1,-1,-1,-1,-1,-1,-1,-1,-1],"split_conditions":[1.6722E4,1.0015E4,1.4395E4,1.247E4,1.8581E4,1.4752E4,1.321E4,1.0015E4,9.364E3,1.7562E4,1.5189E4,1.4385E4,2.0249E4,2.0677E4,1.7187E4,-4.8700634E1,-1.2868095E1,-1.0285769E2,-2.76677E1,-5.142563E0,8.097162E1,-7.006834E1,1.8944263E1,1.13572624E2,4.9090298E1,3.1401464E1,5.7640624E0,-3.4074234E1,-1.5709717E0,8.838835E0,4.88841E1],"split_indices":[0,0,3,2,2,4,4,2,0,3,0,2,0,2,0,0,0,0,0,0,0,0,0,0,0,0,0,0,0,0,0],"split_type":[0,0,0,0,0,0,0,0,0,0,0,0,0,0,0,0,0,0,0,0,0,0,0,0,0,0,0,0,0,0,0],"sum_hessian":[8.6E1,6.1E1,2.5E1,1.4E1,4.7E1,1.4E1,1.1E1,1E1,4E0,3.8E1,9E0,1.1E1,3E0,5E0,6E0,6E0,4E0,3E0,1E0,3.1E1,7E0,8E0,1E0,6E0,5E0,2E0,1E0,2E0,3E0,2E0,4E0],"tree_param":{"num_deleted":"0","num_feature":"6","num_nodes":"31","size_leaf_vector":"1"}},{"base_weights":[-3.4589367E0,-4.4803012E2,1.0280846E3,-1.0988118E2,-9.963702E2,1.4858387E3,3.1041202E2,-8.7397107E2,7.4521216E2,-1.2428268E3,-4.0971765E2,1.7209307E3,4.0910352E2,9.911553E2,-6.876111E1,-5.979739E1,-1.737805E1,-1.6185663E1,7.274329E1,-6.48057E1,-1.2420142E1,8.038355E0,-3.9208096E1,9.836398E1,1.6306185E1,-4.03571E0,4.6963917E1,6.0736263E1,8.011133E0,-2.6817041E1,8.824447E0],"categories":[],"categories_nodes":[],"categories_segments":[],"categories_sizes":[],"default_left":[0,0,0,0,0,0,0,0,0,0,0,0,0,0,0,0,0,0,0,0,0,0,0,0,0,0,0,0,0,0,0],"id":41,"left_children":[1,3,5,7,9,11,13,15,17,19,21,23,25,27,29,-1,-1,-1,-1,-1,-1,-1,-1,-1,-1,-1,-1,-1,-1,-1,-1],"loss_changes":[3.8065364E7,1.0644914E7,7.751718E6,2.4825914E7,2.671648E6,3.092938E6,2.907468E6,2.974171E6,1.4125164E7,4.72894E5,1.8349854E6,3.48174E6,1.1145691E6,5.4846E5,1.01204975E6,0E0,0E0,0E0,0E0,0E0,0E0,0E0,0E0,0E0,0E0,0E0,0E0,0E0,0E0,0E0,0E0],"parents":[2147483647,0,0,1,1,2,2,3,3,4,4,5,5,6,6,7,7,8,8,9,9,10,10,11,11,12,12,13,13,14,14],"right_children":[2,4,6,8,10,12,14,16,18,20,22,24,26,28,30,-1,-1,-1,-1,-1,-1,-1,-1,-1,-1,-1,-1,-1,-1,-1,-1],"split_conditions":[1.6722E4,1.3791E4,1.3401E4,1.1608E4,1.9692E4,2.1084E4,1.2965E4,9.374E3,1.2181E4,1.6135E4,1.5175E4,1.4752E4,2.2114E4,2.0379E4,1.7697E4,-5.979739E1,-1.737805E1,-1.6185663E1,7.274329E1,-6.48057E1,-1.2420142E1,8.038355E0,-3.9208096E1,9.836398E1,1.6306185E1,-4.03571E0,4.6963917E1,6.0736263E1,8.011133E0,-2.6817041E1,8.824447E0],"split_indices":[0,1,3,0,4,1,1,0,4,0,1,4,0,0,0,0,0,0,0,0,0,0,0,0,0,0,0,0,0,0,0],"split_type":[0,0,0,0,0,0,0,0,0,0,0,0,0,0,0,0,0,0,0,0,0,0,0,0,0,0,0,0,0,0,0],"sum_hessian":[8.1E1,5.7E1,2.4E1,3.6E1,2.1E1,1.4E1,1E1,1.9E1,1.7E1,1.4E1,7E0,1.1E1,3E0,3E0,7E0,1.1E1,8E0,7E0,1E1,1.3E1,1E0,3E0,4E0,9E0,2E0,2E0,1E0,2E0,1E0,2E0,5E0],"tree_param":{"num_deleted":"0","num_feature":"6","num_nodes":"31","size_leaf_vector":"1"}},{"base_weights":[1.0904396E2,-4.9986215E2,4.2275372E2,-3.232236E2,-7.394439E1,-3.9156406E2,5.943187E2,-4.3347842E2,5.8072315E1,2.2107495E2,-6.8570575E2,1.5177802E3,2.125212E2,-3.9341873E1,-1.038108E1,-2.4643238E1,3.1167154E1,-4.6968685E1,-1.7178711E0,2.7556217E1,1.0265248E2,-1.0740083E1,3.6981438E1],"categories":[],"categories_nodes":[],"categories_segments":[],"categories_sizes":[],"default_left":[0,0,0,0,0,0,0,0,0,0,0,0,0,0,0,0,0,0,0,0,0,0,0],"id":42,"left_children":[1,3,5,7,-1,9,11,13,-1,15,17,19,21,-1,-1,-1,-1,-1,-1,-1,-1,-1,-1],"loss_changes":[1.5683923E7,4.364131E6,7.776969E6,4.595763E6,0E0,1.953619E6,1.5543329E7,1.7520405E6,0E0,1.4560048E6,1.1243088E6,5.59499E6,7.5919615E6,0E0,0E0,0E0,0E0,0E0,0E0,0E0,0E0,0E0,0E0],"parents":[2147483647,0,0,1,1,2,2,3,3,5,5,6,6,7,7,9,9,10,10,11,11,12,12],"right_children":[2,4,6,8,-1,10,12,14,-1,16,18,20,22,-1,-1,-1,-1,-1,-1,-1,-1,-1,-1],"split_conditions":[1.2181E4,1.1837E4,1.0583E4,1.1738E4,-7.394439E1,8.816E3,1.3401E4,1.0677E4,5.8072315E1,7.237E3,1.6611E4,1.1738E4,1.8944E4,-3.9341873E1,-1.038108E1,-2.4643238E1,3.1167154E1,-4.6968685E1,-1.7178711E0,2.7556217E1,1.0265248E2,-1.0740083E1,3.6981438E1],"split_indices":[4,4,1,4,0,2,1,1,0,1,3,1,1,0,0,0,0,0,0,0,0,0,0],"split_type":[0,0,0,0,0,0,0,0,0,0,0,0,0,0,0,0,0,0,0,0,0,0,0],"sum_hessian":[8E1,2.7E1,5.3E1,2.4E1,3E0,9E0,4.4E1,2.3E1,1E0,3E0,6E0,1.2E1,3.2E1,8E0,1.5E1,1E0,2E0,4E0,2E0,5E0,7E0,1.8E1,1.4E1],"tree_param":{"num_deleted":"0","num_feature":"6","num_nodes":"23","size_leaf_vector":"1"}},{"base_weights":[1.4583848E1,-5.42189E2,2.9271884E2,-2.3177281E2,-1.3280599E3,6.465053E2,-1.0942756E2,-5.450675E2,2.8132703E2,2.5263183E0,-1.5322189E3,1.2749124E3,-2.0762556E2,-2.6787555E2,1.042167E2,4.6093364E0,-4.0459393E1,1.7077406E1,-5.0110354E0,-8.2356224E1,-2.106963E1,-1.981963E1,1.0717987E2,-4.8998306E1,1.6516884E1,-3.793092E1,2.0438559E1],"categories":[],"categories_nodes":[],"categories_segments":[],"categories_sizes":[],"default_left":[0,0,0,0,0,0,0,0,0,0,0,0,0,0,0,0,0,0,0,0,0,0,0,0,0,0,0],"id":43,"left_children":[1,3,5,7,9,11,13,15,17,-1,19,21,23,25,-1,-1,-1,-1,-1,-1,-1,-1,-1,-1,-1,-1,-1],"loss_changes":[1.3476499E7,6.766657E6,8.3226345E6,3.6898745E6,2.329023E6,1.6903702E7,1.029106E7,2.430962E6,2.4102506E5,0E0,1.99395E5,2.6982786E7,6.140592E6,9.275708E6,0E0,0E0,0E0,0E0,0E0,0E0,0E0,0E0,0E0,0E0,0E0,0E0,0E0],"parents":[2147483647,0,0,1,1,2,2,3,3,4,4,5,5,6,6,7,7,8,8,10,10,11,11,12,12,13,13],"right_children":[2,4,6,8,10,12,14,16,18,-1,20,22,24,26,-1,-1,-1,-1,-1,-1,-1,-1,-1,-1,-1,-1,-1],"split_conditions":[1.2181E4,1.0947E4,1.5175E4,9.545E3,6.55E3,1.7697E4,2.4081E4,9.498E3,1.5113E4,2.5263183E0,2.0139E4,1.0965E4,1.6611E4,1.8944E4,1.042167E2,4.6093364E0,-4.0459393E1,1.7077406E1,-5.0110354E0,-8.2356224E1,-2.106963E1,-1.981963E1,1.0717987E2,-4.8998306E1,1.6516884E1,-3.793092E1,2.0438559E1],"split_indices":[4,4,2,4,5,5,4,2,5,0,1,1,4,1,0,0,0,0,0,0,0,0,0,0,0,0,0],"split_type":[0,0,0,0,0,0,0,0,0,0,0,0,0,0,0,0,0,0,0,0,0,0,0,0,0,0,0],"sum_hessian":[8.5E1,2.8E1,5.7E1,2.1E1,7E0,3E1,2.7E1,1.3E1,8E0,1E0,6E0,1.7E1,1.3E1,2.6E1,1E0,4E0,9E0,7E0,1E0,5E0,1E0,6E0,1.1E1,5E0,8E0,1.5E1,1.1E1],"tree_param":{"num_deleted":"0","num_feature":"6","num_nodes":"27","size_leaf_vector":"1"}},{"base_weights":[8.19406E0,-4.54326E2,2.197169E2,3.7116522E2,-9.617423E2,1.7131073E3,-8.335553E1,-5.50844E2,7.857742E2,-1.4957245E3,1.476423E1,-5.306421E0,9.635183E1,-1.091699E3,1.6461497E2,-3.1083057E1,-8.459815E0,2.0725424E0,5.1348675E1,-3.1442627E1,-9.506219E1,2.304344E1,-1.2792568E1,1.4892871E1,-7.381602E1,3.3559532E0,1.0161128E2],"categories":[],"categories_nodes":[],"categories_segments":[],"categories_sizes":[],"default_left":[0,0,0,0,0,0,0,0,0,0,0,0,0,0,0,0,0,0,0,0,0,0,0,0,0,0,0],"id":44,"left_children":[1,3,5,7,9,11,13,15,17,19,21,-1,-1,23,25,-1,-1,-1,-1,-1,-1,-1,-1,-1,-1,-1,-1],"loss_changes":[8.415675E6,1.1666393E7,2.6846518E7,4.637845E6,8.886514E6,4.096394E6,1.2681682E7,2.926E3,1.3936735E6,2.671264E6,9.629739E5,0E0,0E0,5.784265E6,7.3290585E6,0E0,0E0,0E0,0E0,0E0,0E0,0E0,0E0,0E0,0E0,0E0,0E0],"parents":[2147483647,0,0,1,1,2,2,3,3,4,4,5,5,6,6,7,7,8,8,9,9,10,10,13,13,14,14],"right_children":[2,4,6,8,10,12,14,16,18,20,22,-1,-1,24,26,-1,-1,-1,-1,-1,-1,-1,-1,-1,-1,-1,-1],"split_conditions":[1.2181E4,1.1608E4,1.3401E4,7.962E3,1.713E4,7.962E3,1.1143E4,7.237E3,7.237E3,8.456E3,8.816E3,-5.306421E0,9.635183E1,1.1143E4,2.6099E4,-3.1083057E1,-8.459815E0,2.0725424E0,5.1348675E1,-3.1442627E1,-9.506219E1,2.304344E1,-1.2792568E1,1.4892871E1,-7.381602E1,3.3559532E0,1.0161128E2],"split_indices":[1,5,1,4,4,3,5,4,5,1,1,0,0,3,4,0,0,0,0,0,0,0,0,0,0,0,0],"split_type":[0,0,0,0,0,0,0,0,0,0,0,0,0,0,0,0,0,0,0,0,0,0,0,0,0,0,0],"sum_hessian":[8.4E1,2.6E1,5.8E1,1E1,1.6E1,9E0,4.9E1,3E0,7E0,1E1,6E0,1E0,8E0,9E0,4E1,2E0,1E0,2E0,5E0,4E0,6E0,2E0,4E0,2E0,7E0,3.9E1,1E0],"tree_param":{"num_deleted":"0","num_feature":"6","num_nodes":"27","size_leaf_vector":"1"}},{"base_weights":[4.1855446E1,-3.7514145E2,8.3275433E2,-1.2444077E3,-1.4022108E2,1.3882732E3,2.5990833E2,-3.6609683E2,-1.819473E3,-4.493675E2,5.2863934E2,1.7129701E3,6.157327E2,-1.23961426E2,5.722472E2,-2.3816397E1,4.626465E0,-9.8303154E1,-2.349834E1,-6.0107813E0,-4.6059414E1,7.095624E1,-2.1396301E1,9.432257E1,3.7909667E0,3.578589E0,5.6801826E1,-3.800311E1,1.073746E1,-2.3817222E0,3.7808056E1],"categories":[],"categories_nodes":[],"categories_segments":[],"categories_sizes":[],"default_left":[0,0,0,0,0,0,0,0,0,0,0,0,0,0,0,0,0,0,0,0,0,0,0,0,0,0,0,0,0,0,0],"id":45,"left_children":[1,3,5,7,9,11,13,15,17,19,21,23,25,27,29,-1,-1,-1,-1,-1,-1,-1,-1,-1,-1,-1,-1,-1,-1,-1,-1],"loss_changes":[2.8675406E7,1.1465383E7,9.18598E6,5.394932E6,9.74924E6,2.70789E6,1.9892956E6,3.4740344E5,4.60784E5,4.8588815E6,1.3384393E7,2.69712E6,1.617466E6,1.8868552E6,1.0620632E6,0E0,0E0,0E0,0E0,0E0,0E0,0E0,0E0,0E0,0E0,0E0,0E0,0E0,0E0,0E0,0E0],"parents":[2147483647,0,0,1,1,2,2,3,3,4,4,5,5,6,6,7,7,8,8,9,9,10,10,11,11,12,12,13,13,14,14],"right_children":[2,4,6,8,10,12,14,16,18,20,22,24,26,28,30,-1,-1,-1,-1,-1,-1,-1,-1,-1,-1,-1,-1,-1,-1,-1,-1],"split_conditions":[1.6722E4,9.374E3,1.3754E4,7.975E3,1.713E4,1.4385E4,1.8024E4,7.962E3,9.364E3,1.3784E4,1.8581E4,1.7697E4,2.2114E4,1.999E4,1.2759E4,-2.3816397E1,4.626465E0,-9.8303154E1,-2.349834E1,-6.0107813E0,-4.6059414E1,7.095624E1,-2.1396301E1,9.432257E1,3.7909667E0,3.578589E0,5.6801826E1,-3.800311E1,1.073746E1,-2.3817222E0,3.7808056E1],"split_indices":[0,0,3,0,3,2,0,0,0,2,2,5,0,5,5,0,0,0,0,0,0,0,0,0,0,0,0,0,0,0,0],"split_type":[0,0,0,0,0,0,0,0,0,0,0,0,0,0,0,0,0,0,0,0,0,0,0,0,0,0,0,0,0,0,0],"sum_hessian":[8.5E1,5.6E1,2.9E1,1.1E1,4.5E1,1.4E1,1.5E1,5E0,6E0,3.1E1,1.4E1,9E0,5E0,7E0,8E0,4E0,1E0,5E0,1E0,1.9E1,1.2E1,7E0,7E0,8E0,1E0,3E0,2E0,2E0,5E0,2E0,6E0],"tree_param":{"num_deleted":"0","num_feature":"6","num_nodes":"31","size_leaf_vector":"1"}},{"base_weights":[1.9295291E2,3.6446857E2,-4.6410318E2,-3.702541E2,5.0738486E2,-1.2941329E3,1.06288795E2,2.4419766E2,-7.5625476E2,1.1528262E3,1.5264125E2,-9.467223E1,1.3609766E2,-3.250161E2,5.198789E2,2.2038248E0,1.8145979E1,-4.505524E1,2.8211427E0,2.0232023E1,1.0655007E2,-1.3558686E0,6.3628407E1,-1.6396729E0,1.1846997E1,-3.3366726E1,-6.1542773E0,1.4756348E0,3.0602482E1],"categories":[],"categories_nodes":[],"categories_segments":[],"categories_sizes":[],"default_left":[0,0,0,0,0,0,0,0,0,0,0,0,0,0,0,0,0,0,0,0,0,0,0,0,0,0,0,0,0],"id":46,"left_children":[1,3,5,7,9,11,13,15,17,19,21,-1,23,25,27,-1,-1,-1,-1,-1,-1,-1,-1,-1,-1,-1,-1,-1,-1],"loss_changes":[9.184783E6,6.908107E6,8.186071E6,2.793642E6,1.2188205E7,6.257771E6,2.1311868E6,1.0279766E5,8.74858E5,1.3042988E7,7.281904E6,0E0,5.8864176E4,3.3260806E5,2.5312112E5,0E0,0E0,0E0,0E0,0E0,0E0,0E0,0E0,0E0,0E0,0E0,0E0,0E0,0E0],"parents":[2147483647,0,0,1,1,2,2,3,3,4,4,5,5,6,6,7,7,8,8,9,9,10,10,12,12,13,13,14,14],"right_children":[2,4,6,8,10,12,14,16,18,20,22,-1,24,26,28,-1,-1,-1,-1,-1,-1,-1,-1,-1,-1,-1,-1,-1,-1],"split_conditions":[2.0128E4,9.364E3,1.8944E4,1.2143E4,1.3784E4,2.0128E4,1.2759E4,7.237E3,1.5936E4,1.1738E4,1.9692E4,-9.467223E1,1.4251E4,2.0139E4,2.0379E4,2.2038248E0,1.8145979E1,-4.505524E1,2.8211427E0,2.0232023E1,1.0655007E2,-1.3558686E0,6.3628407E1,-1.6396729E0,1.1846997E1,-3.3366726E1,-6.1542773E0,1.4756348E0,3.0602482E1],"split_indices":[2,5,1,2,5,5,5,5,1,4,1,0,1,1,2,0,0,0,0,0,0,0,0,0,0,0,0,0,0],"split_type":[0,0,0,0,0,0,0,0,0,0,0,0,0,0,0,0,0,0,0,0,0,0,0,0,0,0,0,0,0],"sum_hessian":[7.9E1,6.3E1,1.6E1,1E1,5.3E1,6E0,1E1,4E0,6E0,1.8E1,3.5E1,4E0,2E0,5E0,5E0,2E0,2E0,5E0,1E0,1.1E1,7E0,3.1E1,4E0,1E0,1E0,1E0,4E0,1E0,4E0],"tree_param":{"num_deleted":"0","num_feature":"6","num_nodes":"29","size_leaf_vector":"1"}},{"base_weights":[2.732485E1,-5.210338E2,2.632152E2,3.1459192E2,-9.3277484E2,-3.4610486E2,6.735143E2,-5.0944695E1,8.411441E2,-1.5994748E2,-1.6019604E3,7.3415594E2,-7.469783E2,1.0630812E3,1.3229562E1,2.130355E0,5.7601875E1,-3.617272E1,5.220257E0,-8.7965706E1,-8.578296E0,-1.0863306E1,7.510195E1,-5.5937916E1,-7.1204224E0,1.0547644E2,8.817293E0,-1.4261632E1,9.7330956E1],"categories":[],"categories_nodes":[],"categories_segments":[],"categories_sizes":[],"default_left":[0,0,0,0,0,0,0,0,0,0,0,0,0,0,0,0,0,0,0,0,0,0,0,0,0,0,0,0,0],"id":47,"left_children":[1,3,5,7,9,11,13,-1,15,17,19,21,23,25,27,-1,-1,-1,-1,-1,-1,-1,-1,-1,-1,-1,-1,-1,-1],"loss_changes":[1.0744051E7,8.894979E6,1.4733306E7,7.1763855E6,8.535575E6,1.0941546E7,8.988811E6,0E0,1.688734E6,1.4162132E6,1.72386E6,5.440408E6,3.886485E6,2.0042284E7,8.633852E6,0E0,0E0,0E0,0E0,0E0,0E0,0E0,0E0,0E0,0E0,0E0,0E0,0E0,0E0],"parents":[2147483647,0,0,1,1,2,2,3,3,4,4,5,5,6,6,8,8,9,9,10,10,11,11,12,12,13,13,14,14],"right_children":[2,4,6,8,10,12,14,-1,16,18,20,22,24,26,28,-1,-1,-1,-1,-1,-1,-1,-1,-1,-1,-1,-1,-1,-1],"split_conditions":[1.2181E4,1.1608E4,1.2759E4,8.456E3,9.364E3,1.3791E4,1.7697E4,-5.0944695E1,7.237E3,7.237E3,1.8944E4,9.364E3,2.0139E4,1.4752E4,2.6099E4,2.130355E0,5.7601875E1,-3.617272E1,5.220257E0,-8.7965706E1,-8.578296E0,-1.0863306E1,7.510195E1,-5.5937916E1,-7.1204224E0,1.0547644E2,8.817293E0,-1.4261632E1,9.7330956E1],"split_indices":[1,5,5,4,1,1,5,0,5,1,4,4,1,2,4,0,0,0,0,0,0,0,0,0,0,0,0,0,0],"split_type":[0,0,0,0,0,0,0,0,0,0,0,0,0,0,0,0,0,0,0,0,0,0,0,0,0,0,0,0,0],"sum_hessian":[8.1E1,2.4E1,5.7E1,8E0,1.6E1,2.3E1,3.4E1,2E0,6E0,8E0,8E0,6E0,1.7E1,2.1E1,1.3E1,2E0,4E0,2E0,6E0,7E0,1E0,3E0,3E0,1E1,7E0,9E0,1.2E1,1.2E1,1E0],"tree_param":{"num_deleted":"0","num_feature":"6","num_nodes":"29","size_leaf_vector":"1"}},{"base_weights":[-8.209439E1,-5.0511438E2,4.098786E2,-1.2347883E3,-2.5418707E2,7.587328E2,-5.153756E2,-3.0521933E2,-1.7223679E3,-1.1751188E2,-6.2493652E1,9.2138695E1,5.0127707E2,-1.4065037E3,-5.3896484E0,-2.1283289E1,4.4141603E0,-9.357884E1,-2.0677856E1,9.00323E0,-3.3746475E1,-1.2775358E1,4.4781918E1,-6.9884033E0,-8.910798E1,-1.2328548E1,2.3938477E1],"categories":[],"categories_nodes":[],"categories_segments":[],"categories_sizes":[],"default_left":[0,0,0,0,0,0,0,0,0,0,0,0,0,0,0,0,0,0,0,0,0,0,0,0,0,0,0],"id":48,"left_children":[1,3,5,7,9,11,13,15,17,19,-1,-1,21,23,25,-1,-1,-1,-1,-1,-1,-1,-1,-1,-1,-1,-1],"loss_changes":[1.7064302E7,7.742319E6,1.2656628E7,4.459927E6,4.480035E6,6.890851E6,4.99151E6,2.7455906E5,5.92998E5,5.263637E6,0E0,0E0,7.3915555E6,1.654337E6,1.0522119E6,0E0,0E0,0E0,0E0,0E0,0E0,0E0,0E0,0E0,0E0,0E0,0E0],"parents":[2147483647,0,0,1,1,2,2,3,3,4,4,5,5,6,6,7,7,8,8,9,9,12,12,13,13,14,14],"right_children":[2,4,6,8,10,12,14,16,18,20,-1,-1,22,24,26,-1,-1,-1,-1,-1,-1,-1,-1,-1,-1,-1,-1],"split_conditions":[1.3932E4,9.374E3,2.0249E4,7.975E3,1.3754E4,1.472E4,1.5189E4,7.962E3,9.364E3,1.5926E4,-6.2493652E1,9.2138695E1,1.7187E4,1.4251E4,1.321E4,-2.1283289E1,4.4141603E0,-9.357884E1,-2.0677856E1,9.00323E0,-3.3746475E1,-1.2775358E1,4.4781918E1,-6.9884033E0,-8.910798E1,-1.2328548E1,2.3938477E1],"split_indices":[0,0,2,0,0,0,0,0,0,2,0,0,0,0,4,0,0,0,0,0,0,0,0,0,0,0,0],"split_type":[0,0,0,0,0,0,0,0,0,0,0,0,0,0,0,0,0,0,0,0,0,0,0,0,0,0,0],"sum_hessian":[8E1,4.3E1,3.7E1,1E1,3.3E1,2.7E1,1E1,4E0,6E0,3E1,3E0,4E0,2.3E1,3E0,7E0,3E0,1E0,5E0,1E0,2E1,1E1,8E0,1.5E1,1E0,2E0,5E0,2E0],"tree_param":{"num_deleted":"0","num_feature":"6","num_nodes":"27","size_leaf_vector":"1"}},{"base_weights":[-7.581155E0,-7.236027E2,3.8567737E2,-2.732263E2,-1.154463E3,-3.9373987E2,5.186242E2,-3.9395102E2,3.5423E1,-1.2857072E3,1.3792773E1,3.1616074E2,-5.9134033E1,1.169546E3,2.9277817E2,-2.6585682E1,1.4420817E1,-6.1093754E-1,-6.954064E1,-2.9618409E0,2.1240967E1,7.317935E1,-5.1212726E0,-3.769803E1,2.287377E1],"categories":[],"categories_nodes":[],"categories_segments":[],"categories_sizes":[],"default_left":[0,0,0,0,0,0,0,0,0,0,0,0,0,0,0,0,0,0,0,0,0,0,0,0,0],"id":49,"left_children":[1,3,5,7,9,11,13,15,-1,17,-1,19,-1,21,23,-1,-1,-1,-1,-1,-1,-1,-1,-1,-1],"loss_changes":[2.2242442E7,5.117951E6,5.488877E6,2.0568055E6,2.982762E6,4.8544735E6,6.125939E6,1.469421E6,0E0,1.723068E6,0E0,2.2911581E5,0E0,4.264036E6,6.206346E6,0E0,0E0,0E0,0E0,0E0,0E0,0E0,0E0,0E0,0E0],"parents":[2147483647,0,0,1,1,2,2,3,3,4,4,5,5,6,6,7,7,9,9,11,11,13,13,14,14],"right_children":[2,4,6,8,10,12,14,16,-1,18,-1,20,-1,22,24,-1,-1,-1,-1,-1,-1,-1,-1,-1,-1],"split_conditions":[1.247E4,1.0895E4,1.0583E4,1.1608E4,1.9692E4,1.247E4,1.3434E4,1.0677E4,3.5423E1,7.962E3,1.3792773E1,1.2674E4,-5.9134033E1,2.09E4,1.1738E4,-2.6585682E1,1.4420817E1,-6.1093754E-1,-6.954064E1,-2.9618409E0,2.1240967E1,7.317935E1,-5.1212726E0,-3.769803E1,2.287377E1],"split_indices":[0,1,3,0,5,5,1,1,0,3,0,0,0,5,5,0,0,0,0,0,0,0,0,0,0],"split_type":[0,0,0,0,0,0,0,0,0,0,0,0,0,0,0,0,0,0,0,0,0,0,0,0,0],"sum_hessian":[7.7E1,2.7E1,5E1,1.4E1,1.3E1,7E0,4.3E1,1.3E1,1E0,1.2E1,1E0,4E0,3E0,1E1,3.3E1,1.1E1,2E0,1E0,1.1E1,1E0,3E0,8E0,2E0,4E0,2.9E1],"tree_param":{"num_deleted":"0","num_feature":"6","num_nodes":"25","size_leaf_vector":"1"}},{"base_weights":[-3.761512E0,-3.5138065E2,6.796196E2,-1.2822513E3,-1.7323338E2,-1.2200011E2,9.908081E2,-8.688021E1,-1.6113744E3,3.033978E2,-7.2522504E2,3.3098218E2,-4.0365494E2,1.3782548E3,1.9021067E1,-1.1484473E1,4.968457E0,-8.749809E1,-1.9496265E1,4.2370052E1,-2.8245804E1,-6.471582E1,-1.976764E1,1.9417513E1,3.9719484E0,-2.973711E1,-7.971289E0,8.165315E1,2.7101288E1,2.4758627E1,-1.3523702E1],"categories":[],"categories_nodes":[],"categories_segments":[],"categories_sizes":[],"default_left":[0,0,0,0,0,0,0,0,0,0,0,0,0,0,0,0,0,0,0,0,0,0,0,0,0,0,0,0,0,0,0],"id":50,"left_children":[1,3,5,7,9,11,13,15,17,19,21,23,25,27,29,-1,-1,-1,-1,-1,-1,-1,-1,-1,-1,-1,-1,-1,-1,-1,-1],"loss_changes":[2.0431096E7,9.2303E6,7.355068E6,3.400822E6,1.3111757E7,1.2818645E6,7.880612E6,1.0261843E5,5.02588E5,1.323258E7,3.80602E6,2.6872062E4,1.8519731E5,2.311008E6,1.0988359E6,0E0,0E0,0E0,0E0,0E0,0E0,0E0,0E0,0E0,0E0,0E0,0E0,0E0,0E0,0E0,0E0],"parents":[2147483647,0,0,1,1,2,2,3,3,4,4,5,5,6,6,7,7,8,8,9,9,10,10,11,11,12,12,13,13,14,14],"right_children":[2,4,6,8,10,12,14,16,18,20,22,24,26,28,30,-1,-1,-1,-1,-1,-1,-1,-1,-1,-1,-1,-1,-1,-1,-1,-1],"split_conditions":[1.6722E4,9.374E3,1.2759E4,7.975E3,1.3791E4,1.1143E4,1.7697E4,7.049E3,9.364E3,1.3434E4,1.1143E4,2.0677E4,1.4587E4,2.1084E4,1.718E4,-1.1484473E1,4.968457E0,-8.749809E1,-1.9496265E1,4.2370052E1,-2.8245804E1,-6.471582E1,-1.976764E1,1.9417513E1,3.9719484E0,-2.973711E1,-7.971289E0,8.165315E1,2.7101288E1,2.4758627E1,-1.3523702E1],"split_indices":[0,0,5,0,1,3,5,0,0,5,5,0,3,1,0,0,0,0,0,0,0,0,0,0,0,0,0,0,0,0,0],"split_type":[0,0,0,0,0,0,0,0,0,0,0,0,0,0,0,0,0,0,0,0,0,0,0,0,0,0,0,0,0,0,0],"sum_hessian":[8.4E1,5.6E1,2.8E1,8E0,4.8E1,8E0,2E1,2E0,6E0,2.6E1,2.2E1,3E0,5E0,1.4E1,6E0,1E0,1E0,5E0,1E0,1.6E1,1E1,7E0,1.5E1,2E0,1E0,2E0,3E0,1E1,4E0,2E0,4E0],"tree_param":{"num_deleted":"0","num_feature":"6","num_nodes":"31","size_leaf_vector":"1"}},{"base_weights":[4.2099384E1,-1.15751526E2,4.8503836E2,8.775914E1,-6.1809753E2,1.6636199E3,1.3070801E2,-7.7249825E1,9.9455774E2,-1.135033E3,6.049453E2,4.8171387E0,1.0156768E2,5.64704E2,-1.3334863E2,-3.1263647E1,3.1085007E0,-1.2276986E1,7.698524E1,-3.0334814E1,-9.2951614E1,-5.946448E0,6.842313E1,6.594401E-1,3.9133614E1,-1.929463E1,2.341062E1],"categories":[],"categories_nodes":[],"categories_segments":[],"categories_sizes":[],"default_left":[0,0,0,0,0,0,0,0,0,0,0,0,0,0,0,0,0,0,0,0,0,0,0,0,0,0,0],"id":51,"left_children":[1,3,5,7,9,11,13,15,17,19,21,-1,-1,23,25,-1,-1,-1,-1,-1,-1,-1,-1,-1,-1,-1,-1],"loss_changes":[5.859365E6,6.392675E6,8.969912E6,6.810175E6,1.2066846E7,2.685995E6,2.1380938E6,3.0186795E6,5.110306E6,3.844833E6,3.478893E6,0E0,0E0,8.3116725E5,2.003727E6,0E0,0E0,0E0,0E0,0E0,0E0,0E0,0E0,0E0,0E0,0E0,0E0],"parents":[2147483647,0,0,1,1,2,2,3,3,4,4,5,5,6,6,7,7,8,8,9,9,10,10,13,13,14,14],"right_children":[2,4,6,8,10,12,14,16,18,20,22,-1,-1,24,26,-1,-1,-1,-1,-1,-1,-1,-1,-1,-1,-1,-1],"split_conditions":[1.8944E4,1.5388E4,1.4385E4,1.5936E4,2.0128E4,1.9692E4,1.4395E4,8.456E3,1.0583E4,1.7187E4,1.5926E4,4.8171387E0,1.0156768E2,1.9692E4,2.1084E4,-3.1263647E1,3.1085007E0,-1.2276986E1,7.698524E1,-3.0334814E1,-9.2951614E1,-5.946448E0,6.842313E1,6.594401E-1,3.9133614E1,-1.929463E1,2.341062E1],"split_indices":[1,2,2,3,5,1,3,3,1,3,1,0,0,2,3,0,0,0,0,0,0,0,0,0,0,0,0],"split_type":[0,0,0,0,0,0,0,0,0,0,0,0,0,0,0,0,0,0,0,0,0,0,0,0,0,0,0],"sum_hessian":[8.2E1,6.1E1,2.1E1,4.4E1,1.7E1,4E0,1.7E1,3.8E1,6E0,1.2E1,5E0,1E0,3E0,6E0,1.1E1,7E0,3.1E1,2E0,4E0,8E0,4E0,3E0,2E0,2E0,4E0,8E0,3E0],"tree_param":{"num_deleted":"0","num_feature":"6","num_nodes":"27","size_leaf_vector":"1"}},{"base_weights":[1.7230602E1,-3.0106677E2,6.304745E2,-3.7528012E2,9.080601E1,1.0976234E3,3.099682E2,-1.24791885E2,-8.554077E2,1.7234062E3,2.8890332E2,1.1963672E2,4.7310963E1,-2.7766712E1,4.5209923E1,-2.0860107E1,-6.2362873E1,1.6728645E1,1.16708984E2,-2.2502491E1,3.8544617E1,1.7033335E1,-1.3434302E1],"categories":[],"categories_nodes":[],"categories_segments":[],"categories_sizes":[],"default_left":[0,0,0,0,0,0,0,0,0,0,0,0,0,0,0,0,0,0,0,0,0,0,0],"id":52,"left_children":[1,3,5,7,-1,9,11,13,15,17,19,21,-1,-1,-1,-1,-1,-1,-1,-1,-1,-1,-1],"loss_changes":[1.6000522E7,9.166224E6,3.852048E6,6.2673675E6,0E0,5.069016E6,2.0665725E6,1.6450994E7,2.570434E6,4.308624E6,2.4839438E6,1.378997E6,0E0,0E0,0E0,0E0,0E0,0E0,0E0,0E0,0E0,0E0,0E0],"parents":[2147483647,0,0,1,1,2,2,3,3,5,5,6,6,7,7,8,8,9,9,10,10,11,11],"right_children":[2,4,6,8,-1,10,12,14,16,18,20,22,-1,-1,-1,-1,-1,-1,-1,-1,-1,-1,-1],"split_conditions":[1.5189E4,2.6099E4,1.4385E4,1.3784E4,9.080601E1,1.4752E4,2.2135E4,1.2181E4,1.3598E4,1.4587E4,1.7697E4,2.1259E4,4.7310963E1,-2.7766712E1,4.5209923E1,-2.0860107E1,-6.2362873E1,1.6728645E1,1.16708984E2,-2.2502491E1,3.8544617E1,1.7033335E1,-1.3434302E1],"split_indices":[0,4,2,1,0,4,0,1,0,1,0,1,0,0,0,0,0,0,0,0,0,0,0],"split_type":[0,0,0,0,0,0,0,0,0,0,0,0,0,0,0,0,0,0,0,0,0,0,0],"sum_hessian":[8E1,5.3E1,2.7E1,5.2E1,1E0,1E1,1.7E1,3.5E1,1.7E1,5E0,5E0,1.4E1,3E0,2.5E1,1E1,9E0,8E0,2E0,3E0,2E0,3E0,9E0,5E0],"tree_param":{"num_deleted":"0","num_feature":"6","num_nodes":"23","size_leaf_vector":"1"}},{"base_weights":[3.0097445E1,-6.7851904E2,3.220646E2,-4.4830206E2,-1.5557699E3,5.373669E2,-7.5737854E1,-7.6791394E2,-2.108157E2,-8.85153E1,-1.7440649E1,8.5119946E2,-1.2868172E2,-5.625375E2,2.7738602E2,-6.0788105E1,-8.32415E0,1.2821502E1,-1.5502959E1,-4.8642906E1,5.144646E1,-1.6811085E1,2.3711182E1,-6.782063E1,-1.4266044E0,2.5585346E1,-1.5017928E0],"categories":[],"categories_nodes":[],"categories_segments":[],"categories_sizes":[],"default_left":[0,0,0,0,0,0,0,0,0,0,0,0,0,0,0,0,0,0,0,0,0,0,0,0,0,0,0],"id":53,"left_children":[1,3,5,7,9,11,13,15,17,-1,-1,19,21,23,25,-1,-1,-1,-1,-1,-1,-1,-1,-1,-1,-1,-1],"loss_changes":[1.8425088E7,4.553454E6,5.4365075E6,1.5079875E6,6.77173E5,8.679672E6,4.1097535E6,2.2217435E6,7.2870356E5,0E0,0E0,1.0078302E7,1.9112215E6,4.2006345E6,1.0238646E6,0E0,0E0,0E0,0E0,0E0,0E0,0E0,0E0,0E0,0E0,0E0,0E0],"parents":[2147483647,0,0,1,1,2,2,3,3,4,4,5,5,6,6,7,7,8,8,11,11,12,12,13,13,14,14],"right_children":[2,4,6,8,10,12,14,16,18,-1,-1,20,22,24,26,-1,-1,-1,-1,-1,-1,-1,-1,-1,-1,-1,-1],"split_conditions":[1.1608E4,1.52E4,1.6722E4,8.642E3,1.8024E4,1.7697E4,1.2759E4,1.4405E4,7.962E3,-8.85153E1,-1.7440649E1,7.61E3,1.4395E4,1.5189E4,1.5113E4,-6.0788105E1,-8.32415E0,1.2821502E1,-1.5502959E1,-4.8642906E1,5.144646E1,-1.6811085E1,2.3711182E1,-6.782063E1,-1.4266044E0,2.5585346E1,-1.5017928E0],"split_indices":[0,2,2,0,2,5,5,4,5,0,0,5,2,0,5,0,0,0,0,0,0,0,0,0,0,0,0],"split_type":[0,0,0,0,0,0,0,0,0,0,0,0,0,0,0,0,0,0,0,0,0,0,0,0,0,0,0],"sum_hessian":[8.7E1,2.5E1,6.2E1,2.1E1,4E0,4E1,2.2E1,8E0,1.3E1,3E0,1E0,2.7E1,1.3E1,9E0,1.3E1,4E0,4E0,2E0,1.1E1,2E0,2.5E1,1E1,3E0,3E0,6E0,7E0,6E0],"tree_param":{"num_deleted":"0","num_feature":"6","num_nodes":"27","size_leaf_vector":"1"}},{"base_weights":[-3.5321198E1,-3.0728873E2,6.188137E2,-5.8912213E2,-4.2274414E1,1.4209252E3,3.472396E2,-3.740546E2,-1.3512052E3,3.1172232E2,-5.836329E2,1.3239453E1,7.995973E1,5.2915674E2,-6.620033E1,-2.262699E1,6.5753055E0,-1.0591944E1,-7.683553E1,-4.1208157E1,4.2869957E1,-6.3089794E1,-7.101378E0,-5.9842772E0,4.003311E1,2.1803223E1,-1.7715958E1],"categories":[],"categories_nodes":[],"categories_segments":[],"categories_sizes":[],"default_left":[0,0,0,0,0,0,0,0,0,0,0,0,0,0,0,0,0,0,0,0,0,0,0,0,0,0,0],"id":54,"left_children":[1,3,5,7,9,11,13,15,17,19,21,-1,-1,23,25,-1,-1,-1,-1,-1,-1,-1,-1,-1,-1,-1,-1],"loss_changes":[1.5134045E7,4.4564885E6,4.952416E6,4.247655E6,6.3143835E6,8.13173E5,1.5392668E6,1.01180825E6,9.42617E5,1.3103164E7,3.714036E6,0E0,0E0,2.5621265E6,1.1674895E6,0E0,0E0,0E0,0E0,0E0,0E0,0E0,0E0,0E0,0E0,0E0,0E0],"parents":[2147483647,0,0,1,1,2,2,3,3,4,4,5,5,6,6,7,7,8,8,9,9,10,10,13,13,14,14],"right_children":[2,4,6,8,10,12,14,16,18,20,22,-1,-1,24,26,-1,-1,-1,-1,-1,-1,-1,-1,-1,-1,-1,-1],"split_conditions":[1.6722E4,1.247E4,1.2256E4,1.52E4,1.4405E4,1.0677E4,1.7187E4,1.6611E4,8.728E3,1.2143E4,1.5189E4,1.3239453E1,7.995973E1,1.2965E4,1.718E4,-2.262699E1,6.5753055E0,-1.0591944E1,-7.683553E1,-4.1208157E1,4.2869957E1,-6.3089794E1,-7.101378E0,-5.9842772E0,4.003311E1,2.1803223E1,-1.7715958E1],"split_indices":[0,0,3,2,0,5,5,3,5,3,0,0,0,3,0,0,0,0,0,0,0,0,0,0,0,0,0],"split_type":[0,0,0,0,0,0,0,0,0,0,0,0,0,0,0,0,0,0,0,0,0,0,0,0,0,0,0],"sum_hessian":[8.3E1,5.9E1,2.4E1,2.8E1,3.1E1,5E0,1.9E1,2.3E1,5E0,1.9E1,1.2E1,1E0,4E0,1.3E1,6E0,2E1,3E0,1E0,4E0,6E0,1.3E1,4E0,8E0,4E0,9E0,2E0,4E0],"tree_param":{"num_deleted":"0","num_feature":"6","num_nodes":"27","size_leaf_vector":"1"}},{"base_weights":[-7.500281E1,-5.819511E2,1.2974079E1,-7.5684174E2,3.3546143E1,1.4499368E2,-4.4165417E2,3.0524088E1,-9.352034E2,-4.9130008E2,2.9731006E2,-8.571216E2,-2.3277126E1,-2.0336353E1,2.262566E1,-2.985408E1,-7.0620995E1,2.3013489E1,-4.5283627E1,9.447604E1,8.965571E0,-1.6068165E0,-8.3703636E1,-3.124126E1,6.5009766E0],"categories":[],"categories_nodes":[],"categories_segments":[],"categories_sizes":[],"default_left":[0,0,0,0,0,0,0,0,0,0,0,0,0,0,0,0,0,0,0,0,0,0,0,0,0],"id":55,"left_children":[1,3,5,7,-1,9,11,13,15,17,19,21,23,-1,-1,-1,-1,-1,-1,-1,-1,-1,-1,-1,-1],"loss_changes":[3.6201285E6,3.1371735E6,4.2654255E6,1.5733415E6,0E0,5.476557E6,2.7612015E6,7.3759494E5,6.08885E5,4.754201E6,8.1157305E6,5.3379825E6,9.1117725E5,0E0,0E0,0E0,0E0,0E0,0E0,0E0,0E0,0E0,0E0,0E0,0E0],"parents":[2147483647,0,0,1,1,2,2,3,3,5,5,6,6,7,7,8,8,9,9,10,10,11,11,12,12],"right_children":[2,4,6,8,-1,10,12,14,16,18,20,22,24,-1,-1,-1,-1,-1,-1,-1,-1,-1,-1,-1,-1],"split_conditions":[9.545E3,1.4405E4,1.999E4,9.498E3,3.3546143E1,1.0583E4,1.9692E4,9.374E3,9.364E3,1.1474E4,1.0792E4,1.4395E4,2.0139E4,-2.0336353E1,2.262566E1,-2.985408E1,-7.0620995E1,2.3013489E1,-4.5283627E1,9.447604E1,8.965571E0,-1.6068165E0,-8.3703636E1,-3.124126E1,6.5009766E0],"split_indices":[5,3,3,2,0,3,4,2,5,5,3,4,3,0,0,0,0,0,0,0,0,0,0,0,0],"split_type":[0,0,0,0,0,0,0,0,0,0,0,0,0,0,0,0,0,0,0,0,0,0,0,0,0],"sum_hessian":[8E1,1.1E1,6.9E1,1E1,1E0,5.4E1,1.5E1,2E0,8E0,1E1,4.4E1,7E0,8E0,1E0,1E0,6E0,2E0,3E0,7E0,2E0,4.2E1,4E0,3E0,1E0,7E0],"tree_param":{"num_deleted":"0","num_feature":"6","num_nodes":"25","size_leaf_vector":"1"}},{"base_weights":[2.0063725E1,-6.020443E2,1.5501382E2,-2.2731865E2,-1.1262465E3,-2.0736537E2,3.9290915E2,-3.0741098E1,-5.3590088E1,-6.14557E1,-1.5297706E1,5.0952237E2,-7.012058E2,-1.135362E3,5.395803E2,1.375293E1,-1.0449138E1,-1.3191223E0,6.3253284E1,1.2182422E1,-4.6053905E1,-7.402895E1,-2.4927735E0,4.4441437E1,-9.008026E-1],"categories":[],"categories_nodes":[],"categories_segments":[],"categories_sizes":[],"default_left":[0,0,0,0,0,0,0,0,0,0,0,0,0,0,0,0,0,0,0,0,0,0,0,0,0],"id":56,"left_children":[1,3,5,7,9,11,13,-1,15,-1,-1,17,19,21,23,-1,-1,-1,-1,-1,-1,-1,-1,-1,-1],"loss_changes":[7.06147E6,2.6904625E6,6.029849E6,6.4025556E5,1.30237E5,1.027007E7,1.002706E7,0E0,4.6603925E5,0E0,0E0,4.892167E6,3.756121E6,1.4251265E6,7.610859E6,0E0,0E0,0E0,0E0,0E0,0E0,0E0,0E0,0E0,0E0],"parents":[2147483647,0,0,1,1,2,2,3,3,4,4,5,5,6,6,8,8,11,11,12,12,13,13,14,14],"right_children":[2,4,6,8,10,12,14,-1,16,-1,-1,18,20,22,24,-1,-1,-1,-1,-1,-1,-1,-1,-1,-1],"split_conditions":[1.0677E4,9.364E3,1.2759E4,7.237E3,1.0306E4,1.3791E4,1.2181E4,-3.0741098E1,7.962E3,-6.14557E1,-1.5297706E1,1.1608E4,1.1143E4,1.713E4,1.7697E4,1.375293E1,-1.0449138E1,-1.3191223E0,6.3253284E1,1.2182422E1,-4.6053905E1,-7.402895E1,-2.4927735E0,4.4441437E1,-9.008026E-1],"split_indices":[1,1,5,1,1,1,1,0,1,0,0,4,3,4,5,0,0,0,0,0,0,0,0,0,0],"split_type":[0,0,0,0,0,0,0,0,0,0,0,0,0,0,0,0,0,0,0,0,0,0,0,0,0],"sum_hessian":[8.2E1,1.4E1,6.8E1,9E0,5E0,2.7E1,4.1E1,2E0,7E0,4E0,1E0,1.1E1,1.6E1,3E0,3.8E1,2E0,5E0,7E0,4E0,3E0,1.3E1,2E0,1E0,2.3E1,1.5E1],"tree_param":{"num_deleted":"0","num_feature":"6","num_nodes":"25","size_leaf_vector":"1"}},{"base_weights":[-5.435312E1,-2.9678104E2,5.6989044E2,-4.6037387E2,2.6193686E2,3.1783734E2,1.00276025E3,-1.1909218E2,-1.0928337E3,-2.548274E2,8.1510504E2,5.32264E1,1.3512953E2,7.983347E1,3.2708087E2,-3.246864E1,2.4491598E1,-6.022168E1,-1.0387842E1,2.0894402E1,-2.7435694E1,1.8427238E1,8.736167E1,1.0032746E1,-3.9423828E0,-8.742774E0,3.599951E1],"categories":[],"categories_nodes":[],"categories_segments":[],"categories_sizes":[],"default_left":[0,0,0,0,0,0,0,0,0,0,0,0,0,0,0,0,0,0,0,0,0,0,0,0,0,0,0],"id":57,"left_children":[1,3,5,7,9,11,13,15,17,19,21,-1,23,-1,25,-1,-1,-1,-1,-1,-1,-1,-1,-1,-1,-1,-1],"loss_changes":[1.2427193E7,5.5133215E6,2.190727E6,9.798815E6,4.2097165E6,2.0389702E6,2.688097E6,1.0328004E7,1.33016E6,1.8109168E6,2.269827E6,0E0,2.1211431E5,0E0,1.1119718E6,0E0,0E0,0E0,0E0,0E0,0E0,0E0,0E0,0E0,0E0,0E0,0E0],"parents":[2147483647,0,0,1,1,2,2,3,3,4,4,5,5,6,6,7,7,8,8,9,9,10,10,12,12,14,14],"right_children":[2,4,6,8,10,12,14,16,18,20,22,-1,24,-1,26,-1,-1,-1,-1,-1,-1,-1,-1,-1,-1,-1,-1],"split_conditions":[1.8024E4,2.0128E4,2.1725E4,1.3821E4,1.4395E4,1.2225E4,2.0249E4,1.0895E4,2.0139E4,2.0677E4,1.5175E4,5.32264E1,2.1247E4,7.983347E1,2.3125E4,-3.246864E1,2.4491598E1,-6.022168E1,-1.0387842E1,2.0894402E1,-2.7435694E1,1.8427238E1,8.736167E1,1.0032746E1,-3.9423828E0,-8.742774E0,3.599951E1],"split_indices":[0,5,0,1,2,2,1,0,1,5,1,0,0,0,0,0,0,0,0,0,0,0,0,0,0,0,0],"split_type":[0,0,0,0,0,0,0,0,0,0,0,0,0,0,0,0,0,0,0,0,0,0,0,0,0,0,0],"sum_hessian":[8E1,5.8E1,2.2E1,4.5E1,1.3E1,1.5E1,7E0,3E1,1.5E1,7E0,6E0,2E0,1.3E1,3E0,4E0,1.6E1,1.4E1,1.3E1,2E0,2E0,5E0,5E0,1E0,1E1,3E0,2E0,2E0],"tree_param":{"num_deleted":"0","num_feature":"6","num_nodes":"27","size_leaf_vector":"1"}},{"base_weights":[1.2148868E1,-1.378058E2,5.696385E2,5.639301E1,-7.6033905E2,8.4289696E1,2.3402116E2,-3.30103E2,2.7071747E2,-9.9175616E2,-5.2870117E1,-4.267827E2,4.3478735E2,3.3723798E0,-3.1268116E1,3.1491026E1,-6.2716913E0,-6.5925293E0,-6.318707E1,-5.8794436E0,5.150122E0,-2.7435547E1,-1.5249512E0,4.2939194E1,1.3205484E1],"categories":[],"categories_nodes":[],"categories_segments":[],"categories_sizes":[],"default_left":[0,0,0,0,0,0,0,0,0,0,0,0,0,0,0,0,0,0,0,0,0,0,0,0,0],"id":58,"left_children":[1,3,5,7,9,-1,11,13,15,17,19,21,23,-1,-1,-1,-1,-1,-1,-1,-1,-1,-1,-1,-1],"loss_changes":[7.100746E6,8.142858E6,6.3483095E6,4.396813E6,2.567092E6,0E0,2.175566E6,2.2724088E6,4.915811E6,2.639953E6,6.2551324E4,1.765375E5,6.41588E5,0E0,0E0,0E0,0E0,0E0,0E0,0E0,0E0,0E0,0E0,0E0,0E0],"parents":[2147483647,0,0,1,1,2,2,3,3,4,4,6,6,7,7,8,8,9,9,10,10,11,11,12,12],"right_children":[2,4,6,8,10,-1,12,14,16,18,20,22,24,-1,-1,-1,-1,-1,-1,-1,-1,-1,-1,-1,-1],"split_conditions":[1.8944E4,1.5926E4,1.4385E4,1.0862E4,2.0128E4,8.4289696E1,1.1738E4,8.997E3,1.3434E4,1.0947E4,1.5926E4,2.0985E4,1.2256E4,3.3723798E0,-3.1268116E1,3.1491026E1,-6.2716913E0,-6.5925293E0,-6.318707E1,-5.8794436E0,5.150122E0,-2.7435547E1,-1.5249512E0,4.2939194E1,1.3205484E1],